svm_type c_svc
kernel_type rbf
gamma 0.333333
nr_class 10
total_sv 2671
rho 0.293292 0.0984786 -0.536688 0.0976218 -0.558337 -0.0519522 -0.487977 -0.687741 -0.712114 -0.126841 -0.678704 -0.128563 -0.696694 -0.272163 -0.641413 -0.789789 -0.807126 -0.603338 -0.0178555 -0.657748 -0.149814 -0.560774 -0.736402 -0.757525 0.602744 -0.030867 0.498667 0.0660367 -0.239425 -0.283923 -0.622677 -0.18115 -0.563638 -0.736308 -0.757084 0.521501 0.0966972 -0.210085 -0.255298 -0.447351 -0.70483 -0.698331 -0.300701 -0.343509 0.243978
label 1 2 3 4 5 6 7 8 9 10
nr_sv 223 432 463 93 467 105 247 127 258 256
SV
25.09216391765326 0 0 0 0 0 0 0 0 1:-76 2:-80 3:-64 
999.2099155390486 0 0 0 0 0 0 0 0 1:-77 2:-80 3:-64 
1.065763058801444 0.5266121736314675 0.2224514848383497 0.5274870577221085 0.2123884054431965 0.4564564192434289 0.2469441600026922 0.1505509505598639 0.1389401405780846 1:-71 2:-76 3:-65 
1.171808701891616 0.8220588694277018 0.3440537631272454 0.8146311593850797 0.3274795702791226 0.7037982405617326 0.3798943020644161 0.2318337720123635 0.2139421527885298 1:-71 2:-76 3:-67 
0 0.2903277354765725 0.1224238864921146 0.2893119241206037 0.1165007927429438 0.2504797032254742 0.135101421729284 0.08188796028047442 0.07573255778022941 1:-74 2:-80 3:-67 
998.5839277224097 0 0 0 0 0 0 0 0 1:-74 2:-80 3:-65 
9.852968402172237 0.1445636390940197 0.06125196403887288 0.1441094705630567 0.05744355700300989 0.1206020558387758 0.06696342647014987 0.04192352346507935 0.03769460816711927 1:-79 2:-80 3:-65 
2.676017266608086 0.3551298911192339 0.1491291702733349 0.354397347572054 0.1427248963381005 0.3105721485066339 0.1651855948743221 0.0994095977229333 0.09158579391946833 1:-79 2:-81 3:-65 
4.527743732001065 0.2717390870391339 0.1148130666110946 0.2677070941302903 0.1089739654862346 0.2324821337683642 0.1284066848004692 0.07777998207340445 0.07276899994419243 1:-79 2:-81 3:-68 
0.1286228975211658 0.1293799001503693 0.05314808617230649 0.1316341230813273 0.05404398906128192 0.1117485025380527 0.05967563070751367 0.03719291624487766 0.03324723637971991 1:-81 2:-79 3:-73 
0.3219762368201315 0.2836616475192014 0.1201185657179813 0.2847736085677033 0.115502364246571 0.2443243896676105 0.1314474175794441 0.08016930597259492 0.07367146470586543 1:-81 2:-82 3:-73 
0.4930182524309596 0.4152586823854185 0.1753928444487792 0.4152553930179086 0.1670706157966639 0.358678907743616 0.1939272887834651 0.1174401056366922 0.1091395233262152 1:-81 2:-82 3:-76 
0.7589867509150586 0.6445564231374455 0.2718906406735552 0.6435588537044983 0.2588649099228199 0.5560478439065814 0.3008313343538457 0.1826808164517957 0.1685805433392034 1:-85 2:-83 3:-76 
0.249295448484576 0.2110733639508242 0.0888245748757913 0.2125287400947823 0.08532942429047459 0.1824673180234836 0.09821192191631861 0.06039811274205894 0.05607178294372354 1:-85 2:-82 3:-75 
0.5564692637833987 0.4731798718400794 0.199603540728749 0.471640267317253 0.1903955298480871 0.4082795640623464 0.2200282975789646 0.1343039585524084 0.1237332811391567 1:-86 2:-82 3:-75 
0.7743209294490605 0.6580148931718992 0.2774249870036806 0.6577759823676946 0.2638545674639708 0.5673724240378007 0.3071343574905208 0.187168646749539 0.1728118260246937 1:-86 2:-80 3:-75 
0.8113098071485842 0.6895180092256487 0.2906947628474581 0.688349975921992 0.2770173291543453 0.594819408333741 0.3212278643540152 0.1960381079832416 0.1805885365288559 1:-86 2:-80 3:-77 
0.6997144101593146 0.5936172162784255 0.2513142661817271 0.5940941420761539 0.2385739958232074 0.5121682131546089 0.276873974216843 0.1682331036068563 0.1556577936663271 1:-84 2:-70 3:-77 
0.9957111148225524 0.8456176394342905 0.3569737717335494 0.8451778440162216 0.3396896624601062 0.7299824678069133 0.3945542382004948 0.24070327719064 0.2216101301565757 1:-84 2:-70 3:-75 
0.7129063024576959 0.6054961382082406 0.2550664185059266 0.6046360164746513 0.2434029172214352 0.5220987720871981 0.2819002417933468 0.1716949055821813 0.158552895600411 1:-79 2:-70 3:-75 
0.1827564895102262 0.1549186087675315 0.0649240010020917 0.1549571383927843 0.06199520710991575 0.1341786916093823 0.07203502679952921 0.04496393871657256 0.04072590892736258 1:-79 2:-71 3:-75 
0.4432846355203934 0.3771110080231398 0.1593044302435025 0.3765126379731109 0.1518999089381846 0.3248272940558933 0.1761619758752216 0.1065190121241358 0.09859002907624403 1:-79 2:-71 3:-76 
0.5928169649675646 0.504403117376318 0.2134889365675483 0.5031364062198331 0.2023213362151098 0.4358690836152067 0.2353795357315401 0.1443281234697533 0.131685285254891 1:-77 2:-71 3:-76 
0.2806228175848601 0.2340839407018431 0.09821681393384442 0.2341040269911477 0.09425140163634191 0.2020682486179495 0.1089838588357031 0.06609944053774497 0.06109351190836247 1:-77 2:-81 3:-76 
0.8671225387313863 0.7406706038779142 0.3122166842229878 0.7400543922933354 0.2972092784575043 0.6388285322547492 0.3447730433960283 0.2106191537570037 0.193576234556004 1:-77 2:-81 3:-77 
0 0 0 0 0 0 0 0.001113134527584192 0 1:-81 2:-81 3:-77 
0.5616442717099508 0.4801984873844075 0.2037687301451541 0.4800857808501964 0.1927113364427614 0.4144316422204038 0.2253137077826489 0.135399709814985 0.125017454392274 1:-81 2:-80 3:-77 
0.3828848443952818 0.3152116674885421 0.1329223451147667 0.3147118179589782 0.1271879474802335 0.2715795875973867 0.1450978054865989 0.08952658095829008 0.0820321296555739 1:-81 2:-80 3:-75 
0.4646440951624036 0.3906587439795378 0.1657565132891319 0.3910827745111872 0.1565793663577099 0.3378391497893273 0.183406510071501 0.1119674592818956 0.1031423551290875 1:-79 2:-80 3:-75 
0.6900388977681857 0.5909238602185428 0.2479096627193767 0.5889974256530837 0.2381660984026053 0.5088593275096216 0.2733138385991188 0.1683863633053576 0.1543646167439424 1:-79 2:-78 3:-75 
0.2982857332661107 0.2546033809569765 0.1078198847152243 0.2538856850503747 0.1011073071636232 0.220420011862631 0.1173742625772203 0.07149179235225966 0.06571254979143042 1:-79 2:-78 3:-73 
0.8691531632964988 0.6880012402460517 0.29004730818026 0.6867184481569434 0.2766930273497484 0.5933803910639293 0.3207739049981834 0.1951683121098887 0.1795066247241022 1:-77 2:-78 3:-73 
0.1105419417142986 0.1274179005859077 0.05361609418450157 0.127666019028195 0.05138629868763581 0.1095197599886188 0.05952419184279176 0.03671955146843105 0.03437013463537615 1:-78 2:-78 3:-72 
0.8169646294327486 0.6050582023999282 0.2557153235526601 0.6041308297384567 0.2433372843278536 0.5220467014159725 0.282626056587673 0.1711935401484422 0.1576923938725192 1:-78 2:-78 3:-70 
0 0.004265394711729553 0.001355515569632274 0 0.003863821183309671 0 0.006620218758390738 0.004135985321851155 0.004303227060147653 1:-78 2:-79 3:-68 
0 0.1968524032720305 0.0840190575752897 0.198151979186314 0.07822335193240385 0.1753097183893434 0.08901513704260691 0.0535816994447202 0.049971460079591 1:-78 2:-78 3:-68 
0 0.04919663808844931 0.021503388576131 0.05125969117335194 0.01738909918515916 0.03810155669599329 0.0219938093131531 0.01392263458746059 0.009991759855102925 1:-78 2:-78 3:-67 
0.8833214613159921 0 0 0 0 0 0 0 0 1:-80 2:-78 3:-67 
0 0.328193059025193 0.1373521528465486 0.329092032888623 0.1298963770561761 0.2830306525316012 0.1522780772325382 0.0939329736034986 0.08794316797436494 1:-80 2:-76 3:-67 
5.326166766474351 0.5938010688764845 0.2517032954109547 0.5928082642521589 0.2405884450889224 0.5127438873003239 0.2770211314861672 0.1678775221689674 0.1536712261332941 1:-80 2:-76 3:-66 
7.449850841359098 0.5832430238161528 0.246653099810192 0.5836335663915677 0.233995039491831 0.5045695507154965 0.2717678213785312 0.1653470548838816 0.1521344495382893 1:-77 2:-76 3:-66 
0.4452500471536097 0.6512123638464402 0.2743489997294393 0.65052099243928 0.2617912676873355 0.5615427991646459 0.3036313626848902 0.1852844169238849 0.1705295871307981 1:-77 2:-71 3:-66 
1.104823349704288 0.7626548769662866 0.3215855108798866 0.7614472793923236 0.3066463095907682 0.6580239717179557 0.3557947309410621 0.2170807662840333 0.2002519235780972 1:-77 2:-71 3:-63 
3.94090235760037 0.9213734706230912 0.3888286757234927 0.9209764866034049 0.3706514512714162 0.7957762722290792 0.4298556457812334 0.2617487398147582 0.2414873095507738 1:-72 2:-71 3:-63 
2.583531578382112 0.3100490423230946 0.130560400261834 0.3094181305530216 0.1249057600248966 0.2679240735984312 0.1451258004789576 0.08822181117688963 0.08137174808774472 1:-72 2:-74 3:-64 
3.663896067930923 0.06441184222207605 0.02709439427512197 0.06481057844408876 0.02559165344073928 0.05536303505725199 0.0298573501940446 0.01809883633682702 0.01805157133685076 1:-74 2:-74 3:-64 
18.93577269574909 0.8928087916095476 0.3763598713672051 0.8919163200838471 0.3585532795873727 0.7702178982624138 0.4161190165868059 0.2537346781639329 0.2337955231021807 1:-74 2:-81 3:-64 
7.817172999392366 0.9142876823584876 0.3853909061649001 0.9129772187440299 0.3674661748699923 0.7886362979183458 0.4255641367635516 0.2593575842467711 0.2394052775647727 1:-74 2:-81 3:-69 
0 0.07366725698848384 0.03150608801032878 0.07634588085545641 0.02982126462730184 0.06481022713151627 0.03398175607848452 0.02114922988379079 0.0186455426643374 1:-80 2:-82 3:-69 
0.4258297251706581 0.3555491485304078 0.1507530762893567 0.3525232673706414 0.1401511872094259 0.3067153782945491 0.166891624880507 0.1020326805565806 0.09402644498634109 1:-82 2:-80 3:-73 
0.1237877611694791 0.1022963137025141 0.04578928433800072 0.1025669206720561 0.04165791282602874 0.08860213787841385 0.04640890622653675 0.02928426172359587 0.02711307184775338 1:-83 2:-79 3:-77 
0.1930830557090941 0.1658344816654266 0.06617887732698167 0.1649494738461945 0.06540069005335275 0.1419212531213643 0.07948468130139533 0.0509447022879518 0.04534062780931917 1:-83 2:-79 3:-76 
0.5577727635463139 0.4730176653662909 0.2005120326199829 0.4726591271854118 0.1912112173167771 0.4095788501830746 0.219368425141669 0.1323578203808236 0.1235724002551917 1:-84 2:-79 3:-76 
0.8532871667434498 0.7250431331610278 0.3061263484371096 0.7245058734321786 0.2918308037319097 0.6257307308178197 0.3379530661516601 0.2060787506915629 0.1902371496951127 1:-84 2:-73 3:-76 
0.5507423914419762 0.4680944389042558 0.1966559624135037 0.4671360748679951 0.1880862234624028 0.4034959818094374 0.2180882973205872 0.1332698139484519 0.1231409142016128 1:-81 2:-73 3:-76 
1.023374208167324 0.8694349704532841 0.366724074148097 0.8682065205718927 0.3499790462270544 0.7501466146177622 0.4051837836849705 0.2471449799200267 0.2277258429006497 1:-81 2:-66 3:-76 
1.019511835169698 0.8662057526505148 0.3648733919139065 0.8656400994884155 0.3481919513131986 0.7476588274391994 0.40394741544222 0.2462700240228051 0.2266753356500615 1:-79 2:-66 3:-76 
0.2016613935948375 0.1723622829905871 0.07353354733102466 0.1723179941264678 0.06873413636501376 0.1492504647191711 0.08117775364133502 0.04883993751608712 0.04473014361723864 1:-79 2:-74 3:-76 
0.8241303644883995 0.6997094333062489 0.2943126675306389 0.6990696094169286 0.2811852825283263 0.6036776332036343 0.3255744571433852 0.1987084344839188 0.1832853834961449 1:-79 2:-74 3:-77 
0.8006853563423366 0.6798847138704514 0.2864573542630173 0.6786045345658673 0.2740499769319658 0.5858686742552334 0.3163780769079534 0.1940736037215934 0.1786746337052758 1:-80 2:-76 3:-77 
0.03610170239174799 0.03068552701154022 0.01502363907252231 0.0335476011428506 0.00959030297953114 0.02853031515256022 0.01619140151469421 0.005456272460429627 0.005265546620844824 1:-80 2:-77 3:-76 
0 0 0 0 0 0 0 0.002925075943305701 0.002246522596325403 1:-82 2:-77 3:-76 
0.3758962346521082 0.3186922573283137 0.1336565119895601 0.3181677088012071 0.1275101438618552 0.2751163723374364 0.1486614709903052 0.08865676030366196 0.08166165216541967 1:-82 2:-76 3:-76 
0.4697670588074261 0.3994386359035276 0.1683623639764796 0.3994793835009111 0.1614099888131989 0.3448818005839692 0.185436889588837 0.1141237139327292 0.1051241031896993 1:-83 2:-76 3:-75 
0.7520776446258808 0.638265773100858 0.269346380776373 0.6375892691429866 0.255867539567795 0.5506507685549431 0.2986273804314388 0.1813711500480579 0.1671518849273395 1:-83 2:-77 3:-74 
0.8238911066762353 0.6988064145499422 0.2948179118001856 0.6987060521249584 0.2815284980440995 0.6037983418353166 0.3253371530367811 0.1992051681569287 0.1829010735519186 1:-81 2:-74 3:-74 
1.000502298586063 0.8482761688403294 0.3581008428107825 0.8484890370314601 0.3424942450483878 0.7324126447488258 0.3956654051068194 0.2418699369924522 0.2231433205198402 1:-81 2:-74 3:-71 
0.4855247616833588 0.4259112138720674 0.1806309581411706 0.4264858239369142 0.1723775872769094 0.3682994797729281 0.2001909781339355 0.121017712117019 0.1116556452111179 1:-77 2:-74 3:-71 
1.29489874282101 0.7966125014986086 0.3402084415910256 0.8049283763733215 0.3240603961987784 0.6958976301973084 0.375206285111103 0.2287280754240485 0.2108482299957903 1:-77 2:-73 3:-68 
0.3534178284542895 0.2052099703829754 0.08890874044622393 0.2045152948110714 0.08413636806654939 0.1791184615186213 0.09375161346345706 0.05801923986454799 0.05185775469435289 1:-74 2:-73 3:-68 
2.584227087052544 0.7086783933655215 0.2988264837552918 0.7072444272452241 0.2845784358913079 0.6108761667897231 0.329928538329388 0.2015310260237644 0.1856633965743401 1:-74 2:-78 3:-68 
0 0.1621383638210478 0.06774018642418574 0.1598003817219826 0.06478773749294858 0.1392654047982861 0.07523106073993621 0.04580846194984865 0.04189192915363116 1:-74 2:-78 3:-65 
0 0.199325266550802 0.08426804524338931 0.199909907938108 0.08034987555927876 0.1728948519429987 0.09323264230469529 0.05658417432208251 0.05179070611499905 1:-74 2:-73 3:-65 
1000 0.3102868469722979 0.1307202794264797 0.3094736954003762 0.1247381654501595 0.2677289506314702 0.1446631641836755 0.08839235026347229 0.08047540491826045 1:-74 2:-73 3:-63 
2.513588802971422 0.4729230288666803 0.1995413492919274 0.472848547226164 0.1904536193239761 0.4082615974674939 0.2210034946633603 0.1340229880308299 0.1237655592182517 1:-76 2:-73 3:-63 
9.75190130780568 0.8074145078201194 0.3404999252894282 0.8065665100654448 0.3247570580661218 0.6967491916415712 0.3764596687708086 0.2296826723386409 0.2116595410676628 1:-76 2:-79 3:-63 
0 0.2735142967176336 0.1156908138327232 0.273747366099163 0.1116654239132045 0.2351599974796062 0.1280780481242079 0.07820265747616181 0.07304067889372212 1:-76 2:-79 3:-66 
0 0.4627149527691669 0.195552594305696 0.4624638594865917 0.1863683207837739 0.3999076362363201 0.216286308732575 0.1308383051050536 0.1214962905552699 1:-80 2:-79 3:-66 
5.28187146218338 0.1641955322013748 0.06980301509199462 0.1655144738142678 0.0672378648596002 0.1407770853929147 0.0776300393434383 0.04845821251947023 0.04473163114105101 1:-80 2:-81 3:-66 
0.6118483405793114 0.384504133484562 0.1623471795016249 0.3842149689240233 0.1551784723566383 0.3316383715915773 0.1798691270457844 0.109573527202796 0.1011495390153643 1:-82 2:-81 3:-69 
0.5802427844933714 0.492465141055046 0.2073520301462415 0.4926900772402084 0.1974031811528878 0.424779694288706 0.2293958841589958 0.1401063436089465 0.1290930806939738 1:-82 2:-80 3:-69 
0.2590117646455078 0.2266481489871131 0.09472626921834296 0.2291776329709982 0.09363924438612657 0.1955042098495683 0.1038015618801732 0.06336834715505267 0.05808103556192828 1:-82 2:-80 3:-72 
0.5088665711502117 0.4253970454182395 0.180072815803666 0.4248440195468149 0.1705132079294084 0.3680368034363777 0.1996202334346174 0.1214685779625375 0.1123421212246037 1:-82 2:-81 3:-72 
0.6283105782620498 0.5341456317433293 0.2233435438719731 0.5336547437019206 0.2147514055381222 0.4615665187434206 0.2479363264507891 0.1519159987847951 0.1402214730629632 1:-82 2:-81 3:-78 
0.2229906539597638 0.1882834380380583 0.08175330465680787 0.1876242014294372 0.07541051996744907 0.1620406055385089 0.08894599083191305 0.0522205055214584 0.04865357096515382 1:-83 2:-82 3:-78 
0.7748914261672388 0.6584291473128929 0.2766105987370428 0.6586729077535789 0.2652394841498864 0.5687139458331736 0.3064168244531826 0.1884792009966381 0.1733333370089201 1:-84 2:-82 3:-78 
0.5095641272310785 0.434040841771248 0.1816673184065221 0.4338864265669437 0.1744410737234492 0.3742937797497783 0.2031589477765283 0.1232873192797768 0.1131972077338088 1:-84 2:-79 3:-78 
1.113439826536025 0.9452317679513115 0.3992902171550953 0.944731796376416 0.3802710829939772 0.8164475855593378 0.4402439631927714 0.268945802093692 0.2480177968829854 1:-84 2:-79 3:-80 
0.7150811376602025 0.6077394107240127 0.2562400250275872 0.6068783781379381 0.245271244251708 0.5241465435502625 0.2830700341129867 0.1717790465771481 0.1599253767166875 1:-84 2:-75 3:-80 
0.2375637391608672 0.2022346877179566 0.08411943860224924 0.2023559705582368 0.08032406751987634 0.1740997892182979 0.09388583344907506 0.05884074668913993 0.0516626680230495 1:-84 2:-75 3:-81 
0.2113889673084438 0.1782446271720315 0.07631996567239342 0.1781315672320413 0.07224476643772459 0.1558578297586953 0.08451877331560438 0.05016824755818085 0.04781396460944795 1:-83 2:-75 3:-81 
0.7525797071557392 0.6395426025051155 0.2696924091410188 0.6395824351492548 0.257085870083649 0.5508606504793225 0.297582367484336 0.1821418209090033 0.1675702819475189 1:-83 2:-74 3:-81 
0.4722220899851181 0.4003860308607659 0.168420620192719 0.399628073098753 0.1597021509741418 0.3456369665737827 0.1862345544455463 0.1135787912894298 0.1053444815376102 1:-83 2:-74 3:-77 
0.1811316586140437 0.1560713443076461 0.0659037291919502 0.1561445368788395 0.06441998790057486 0.134586723786211 0.07336610671302619 0.04493211743333207 0.04112920517697114 1:-82 2:-74 3:-77 
0.2613984686685827 0.2202920802443887 0.09403315731898147 0.2206823289365831 0.08791305683823832 0.1902210224504755 0.1025512936373469 0.06203929524652901 0.05714002868463788 1:-82 2:-73 3:-77 
0.5734903696448258 0.4875949924822013 0.2047702078718233 0.4863724612766125 0.196088549544723 0.4212401041196125 0.2269306573369887 0.139058696268771 0.1274885956131845 1:-83 2:-71 3:-77 
0.7986361122772752 1.207452395560637 0.2563902190471594 0.6040120652331175 0.2431132078775115 0.5221848797589838 0.2798657042462821 0.1723208631345874 0.1566890844107253 1:-75 2:-73 3:-70 
0.05864264752322047 0 0.06728476410440745 0.1651637959226057 0.06591973741708626 0.1411927788568426 0.07924514220227126 0.04654022504720771 0.04567110982661193 1:-75 2:-73 3:-69 
0.423361942645047 0.3445713580217827 0.151390592666094 0.3593008068177622 0.1439492928490965 0.3095400300885125 0.1669448989997807 0.1021502670063438 0.09373235253707633 1:-75 2:-70 3:-69 
0.0007880969080969171 0 0 0 0 0 0 0 0 1:-75 2:-70 3:-71 
0.7460081786966188 0.6338757514471484 0.2667521247554964 0.6301191169045091 0.2536339988204079 0.5437997193880139 0.2933918089617028 0.179673955460585 0.1654067467458966 1:-73 2:-70 3:-71 
0.7051937791288941 0.5991457402515507 0.2532183924460055 0.5995987980345379 0.24045261385578 0.5163418549758584 0.2790237782207121 0.1697891647689116 0.1566005699741055 1:-73 2:-65 3:-71 
0.3869092714891802 0.3281491590523845 0.1378281178389741 0.3270773577305394 0.1324471668753338 0.2837521658032363 0.1535658350193962 0.09379749192455242 0.08640785469526389 1:-73 2:-65 3:-72 
0.8264158765250558 0.7019610634479164 0.2958187959492747 0.7007816817125376 0.2824748134409423 0.6067634896738898 0.3277259755729567 0.1999905434028921 0.1831246902888989 1:-76 2:-65 3:-72 
0.1856731767760672 0.132253705468224 0.0648823476292289 0.1512105745057105 0.06182922268310387 0.1310925634387476 0.0702667268149106 0.04320760908403223 0.03883535024824025 1:-76 2:-71 3:-72 
1.185442740473281 1.007034935419691 0.4246396214581604 1.006066004607404 0.4047149024184132 0.8689570454476423 0.468882315446132 0.2861441608841 0.2638477078736249 1:-81 2:-71 3:-72 
0.4098080904905597 0.3364115300272239 0.1445901011247342 0.3342890531753725 0.1325320429997394 0.2904525778312962 0.1586860887317369 0.09504059690163011 0.088811862301896 1:-81 2:-78 3:-72 
0.2937489794509022 0.2413462459102171 0.1048175277033905 0.2426073913610881 0.1014850818669743 0.2104918556417785 0.1146659107512149 0.07203829026025711 0.06785671779107957 1:-80 2:-76 3:-73 
0.0124702252854401 0.01191984432918807 0.009897171958403011 0.01228724557201817 0.004148922046059202 0.009427392186176092 0.01172612709552702 0.003692243893461085 0.005650176380068209 1:-81 2:-76 3:-74 
0.355572881346543 0.2972388789607248 0.1255620254955372 0.2958995744559151 0.1186144570653049 0.2569857247640547 0.1389970699565809 0.08441808826526921 0.07826053959104257 1:-80 2:-83 3:-74 
0.53305769930323 0.4473732828175904 0.1878456681581265 0.4469036828537379 0.1794611532077513 0.3864706914294114 0.2083613712023918 0.1276007100470716 0.1175552520450396 1:-80 2:-83 3:-72 
0.7158250119565573 0.6072545670819454 0.2563673422116171 0.6072622527241992 0.2447489779404755 0.5242998960107231 0.2835709006325107 0.1729777953255145 0.1602316527318695 1:-78 2:-83 3:-72 
0.6190916460519523 0.5196711209311123 0.2202203698695857 0.5209925064259485 0.2100138041539571 0.4503707081336835 0.2424566811094989 0.148516356316044 0.1361332004682206 1:-78 2:-72 3:-72 
0.608148208267398 0.5323005219411242 0.2209155508973828 0.5267248414825706 0.2111475325246919 0.4542498251726397 0.245963820350822 0.1494737756706419 0.139281178517115 1:-76 2:-72 3:-72 
0.8679663557194117 0.7432768160044761 0.31099075907422 0.7358020280846012 0.2963119661594514 0.6361486613195023 0.3437466539833394 0.209296708396133 0.1927517007686259 1:-76 2:-69 3:-69 
0.7018822411684429 0.5989667215667283 0.2509732987768319 0.5952916743964013 0.2395599957235588 0.5145927691318565 0.2782012531696239 0.1695055834484123 0.1564978479016749 1:-73 2:-69 3:-69 
0.8573088085302664 0.7277049822679033 0.3073627004304162 0.7274675060404079 0.2929567415487203 0.6288335306062696 0.3394944710303584 0.207440697974977 0.1910750436490025 1:-73 2:-67 3:-69 
0.3220190430682781 0.2740507038045537 0.1151619001918563 0.2738095241153296 0.1100318536300567 0.2367035608589202 0.127443394530204 0.07789939770453083 0.07221525983834387 1:-73 2:-67 3:-71 
0.4359418694124764 0.3699026815674731 0.1560609360755081 0.3698681880982158 0.1490736829784818 0.3194409976564018 0.1727347309903959 0.1050111618636251 0.09623687879693485 1:-74 2:-67 3:-71 
0.491152884054597 0.4171731349676209 0.1777462709400266 0.4227592383566177 0.1696779716214895 0.3652614867159613 0.1980013704962664 0.1197920881711484 0.1105871034223423 1:-74 2:-71 3:-71 
0.4698920370923652 0.4031854150772068 0.1703830761021474 0.4040180833670202 0.1620796130836508 0.3488867013513322 0.1891373861249859 0.1144699102453688 0.1062083306330695 1:-78 2:-71 3:-71 
0.9764847144478463 0.8233441628185887 0.3479453066083135 0.8231568572847084 0.3314824073629454 0.7110467247615324 0.3844970928703194 0.2348745864191173 0.216891968424566 1:-78 2:-75 3:-74 
0.05466615803523996 0.05449370321704242 0.01787966217112572 0.05427962494484228 0.01548005160412591 0.04668270820880455 0.01996464398045524 0.009047503782297564 0.005851744324383933 1:-80 2:-76 3:-74 
0.1983719552581482 0.1668266116264917 0.07011938099034075 0.1653576747457563 0.07115903132316936 0.1430076575333741 0.07640376664788386 0.05104524276020375 0.0474936804008676 1:-80 2:-76 3:-75 
0.0252886349985128 0.02073469771416692 0.01230154521805706 0.02237362137947603 0.006055449615189146 0.01839070452240352 0.0142185218006857 0.003713343205670176 0.005712146632333616 1:-81 2:-78 3:-75 
0.3526454741196192 0.2981052382075304 0.1208719657689258 0.2943566513458054 0.1226470658093163 0.2554375325445907 0.1355628043806667 0.09028338310638134 0.08149607332821246 1:-81 2:-78 3:-76 
0.2239165893529244 0.1930676129825612 0.08450472576761042 0.1946567851098591 0.07721620825931289 0.1677481358833172 0.09008428331541189 0.04886034001007007 0.04640713659471982 1:-82 2:-78 3:-76 
0.6165552339690132 0.5245312670039269 0.220718832686073 0.5247777257258962 0.211311599570375 0.4530814741334822 0.2445104083191139 0.1478483303335441 0.1374157294659447 1:-82 2:-84 3:-76 
0.641702561769869 0.5446680438769425 0.2297605292243261 0.5432417710049812 0.218475166862144 0.4695211315947651 0.2539053724694114 0.1563629169553937 0.1422329007504824 1:-82 2:-84 3:-75 
0.5161233372275431 0.4427311986555041 0.1870122100695864 0.4437002256070312 0.1796311995201588 0.3816457045395 0.2063524611074468 0.1254753693669847 0.1158353454101047 1:-79 2:-84 3:-75 
0.1699648988756915 0.142861854042917 0.06128492971546175 0.1420999175142799 0.05791707091439233 0.1236402826026799 0.06737855786703471 0.04109301819764067 0.0383578464543726 1:-77 2:-82 3:-76 
0.5615626547258965 0.4760333388612124 0.2003484934078278 0.4766149030372409 0.1917405078991043 0.4107605770618646 0.2213606608164996 0.1345180436396021 0.125444253142324 1:-77 2:-70 3:-76 
0.7043084869870843 0.5990546584632257 0.2520601747140033 0.5983218109563325 0.2418023156290045 0.5177430911103018 0.2799298689557842 0.1701821674038342 0.1568766451923707 1:-74 2:-70 3:-76 
0.5183135351849631 0.4390105497214525 0.1860764775471715 0.439296987865827 0.176029364077344 0.3785495056989305 0.2037059402124062 0.1246530840580814 0.1150352128225296 1:-74 2:-69 3:-76 
0.341442938836837 0.2899949479813648 0.123511245137779 0.2909878267200331 0.115690255696643 0.2503038048063641 0.1364229234022304 0.08180115694024787 0.07633977609862588 1:-74 2:-69 3:-74 
0.7470903190240574 0.6351981780098445 0.2667434959319685 0.6335208480020742 0.2560725427110759 0.5480256732796747 0.2947379030748157 0.1809737039816423 0.1659229272299476 1:-73 2:-69 3:-74 
1.101864712661034 0.9357913073418549 0.3947668938852997 0.9351678108810811 0.3761207997954806 0.8078808463378735 0.4366514560100256 0.2660664141031364 0.2450370469747808 1:-73 2:-66 3:-74 
0.5320529937827042 0.4515259018476689 0.1910947975061231 0.4525260220477425 0.1813038418807581 0.3895759704410166 0.2099526716323729 0.1282237997207299 0.119085155296189 1:-76 2:-66 3:-72 
0.8186143067374039 0.7016642322775694 0.2934352193354521 0.6959670344988232 0.2799356342473197 0.6009987459061612 0.3251224915743894 0.1983530927113793 0.1831034798057241 1:-76 2:-69 3:-72 
0.8926102592110338 0.7568420530429302 0.3194080786477028 0.7566284811677741 0.3044135355940308 0.653430107312948 0.3525980263926485 0.2148329653829261 0.1982057407556869 1:-78 2:-69 3:-71 
0.7765808765861817 0.6093130728329917 0.2582673310729565 0.6123556954397109 0.2468441209102874 0.5291398015932968 0.2840570115999879 0.1743919762488928 0.1623216693826731 1:-78 2:-75 3:-71 
0.1095479601339374 0.128704461217987 0.05150266310082882 0.122597354084324 0.0484543883747435 0.1055263024241825 0.05789984144528355 0.03456395960383044 0.03013950886803603 1:-78 2:-75 3:-72 
0.256188895463725 0.2193353255092403 0.09172466753812226 0.2177927120967557 0.08580473636695787 0.1886523888280527 0.1013900219639855 0.06123526740808859 0.05617107975835465 1:-81 2:-75 3:-72 
0.507607590019954 0.4368187502161055 0.1819829413949543 0.4373081228419724 0.1770723573671753 0.3766198188271329 0.2026092476201672 0.1244959341098517 0.1131116275206352 1:-81 2:-77 3:-72 
0.1206943541910459 0.1014151238480864 0.03750614751053571 0.0997561567737148 0.04228620573860671 0.08790756074042241 0.03862823372785495 0.02948045131435371 0.02434490010636729 1:-81 2:-77 3:-74 
0.0164174117916063 0.009370272899916886 0.006610141344031819 0.01020761630853263 0.004804025310468619 0.007456223483621627 0.01063404700982902 0.004410966812981297 0.005651058857574397 1:-80 2:-77 3:-74 
0.2140595926233556 0.2089558188942256 0.08713144598302444 0.208673905102227 0.08395840318278333 0.1805189899625853 0.09778066867676397 0.0593208637023736 0.05501379709496657 1:-80 2:-81 3:-74 
0.2950538741397392 0.2499954985068745 0.1049262685763043 0.2496622036146621 0.1011202392368976 0.2154771943867062 0.1153951876028728 0.07013538024043527 0.06523991597834616 1:-79 2:-81 3:-76 
0.4510071346150177 0.3868213545885038 0.1626458491623652 0.3858592356692442 0.1541647264611034 0.3338415072777497 0.1801814811970685 0.1106471051617022 0.1014743013089722 1:-79 2:-83 3:-76 
0.2711875083903358 0.2101803112636614 0.08746442034427783 0.2113132721801259 0.08446542732778377 0.1804596143866722 0.09778587542572789 0.05894828761511757 0.05462864583342977 1:-77 2:-83 3:-75 
0.7958637581858828 0.6702690964634389 0.2837517840817396 0.6684322690493372 0.2692792027616234 0.5796278074163133 0.3125383695711396 0.191176376566685 0.1760054719709246 1:-77 2:-84 3:-75 
0 0.06970037847198801 0.02883617324577059 0.06875817786445129 0.02684345335593124 0.05934451855779623 0.03165013822291055 0.01895933629700043 0.0158398910756266 1:-77 2:-84 3:-72 
1.295257553895214 0.8959320506591196 0.3781826879540415 0.8961129150354203 0.3614887678318888 0.7740753038870548 0.4186701196303934 0.2552325618052992 0.2368865742052717 1:-76 2:-84 3:-72 
999.2839189239203 0 0 0 0 0 0 0 0 1:-81 2:-81 3:-67 
999.9931001729461 0.3996314766571341 0.1685784120723592 0.3983466535518397 0.1597775192977597 0.345362258613332 0.185130493430177 0.1126008338458257 0.103928987466366 1:-81 2:-81 3:-67 
0.1850072266395586 0.4648130230051598 0.1959036077596972 0.4651350325403438 0.1869726993981991 0.4010833853352806 0.2166351213027834 0.1328762813549184 0.1220433510731184 1:-81 2:-78 3:-67 
0.7646927825585034 0.6705822494600894 0.2832825384991379 0.6697521848994712 0.2703936620861014 0.579135159238944 0.3127500595891077 0.1902435604628022 0.1754119871874559 1:-81 2:-78 3:-69 
0 0.07289134433501644 0.02859708548235807 0.07392425757006046 0.02864456296066996 0.06121583527545126 0.03271307510590576 0.02208892906698955 0.0204793159942214 1:-79 2:-78 3:-69 
0.4834234189738036 0.4078298417837545 0.1702253898676814 0.4088202559656996 0.1652473841591526 0.3523403794732042 0.1914036926179681 0.1161540583892698 0.1075341803659343 1:-79 2:-80 3:-72 
0.3500932016615019 0.1885685701127658 0.08103785881424144 0.1890072423043528 0.07546676355923561 0.1630765021830376 0.08739873113948668 0.05333838169362741 0.04864696576486043 1:-79 2:-81 3:-72 
0 0.448464039917374 0.1868115833679798 0.4471720903415649 0.1802306243937623 0.3852489255631038 0.2087875980689208 0.1275889403658552 0.1177206331416602 1:-79 2:-81 3:-70 
0 0.05556749138939281 0.02328384036043203 0.05430321829091868 0.02197821293821478 0.04830033207353486 0.02542397412983372 0.01591400511202801 0.01458973205880199 1:-81 2:-81 3:-70 
0.925395257575522 0.7715151976781243 0.3252461911602955 0.7696166020356701 0.3100460908191401 0.6649144919970366 0.3598733677026697 0.2187144497446445 0.2025633147441888 1:-81 2:-83 3:-70 
0.4842707948886231 0.6746842453154803 0.2844165649155282 0.6741766286727798 0.2716532916939983 0.5818684984809323 0.3147848527880499 0.1918170596238281 0.1768344825748935 1:-81 2:-83 3:-67 
3.932299974213022 0.7474477861892455 0.3153196776062984 0.7473399547514337 0.3001872688753751 0.6459610477727621 0.3483475801104471 0.2124236204309809 0.1957911337540515 1:-79 2:-83 3:-67 
19.42643669666911 0 0 0 0 0 0 0 0 1:-79 2:-79 3:-66 
0 0.3267748993025726 0.136777534369746 0.3257200382889714 0.131252229845236 0.2866350435858595 0.1522146787866901 0.09150495945430229 0.0863995746031139 1:-78 2:-79 3:-66 
0 0.3472193402407817 0.1455716829877621 0.3440243274171623 0.1381493884024707 0.2961239111370145 0.1592063782566767 0.09831735291673666 0.090795444549709 1:-78 2:-73 3:-66 
3.379571195418165 0.5280613685894786 0.2227952112183214 0.5295155627090832 0.2132907529049478 0.4584351298446008 0.2481695773539554 0.1502593411866417 0.1383929252323576 1:-78 2:-73 3:-65 
0 0.3457486602368398 0.1457338030170101 0.3450801745174772 0.1385929886629262 0.2981019057613694 0.1607921557258411 0.09890089021108614 0.09039465109546023 1:-75 2:-73 3:-65 
0.1959641198634107 0.2393524222649792 0.100097516968782 0.2377399029489255 0.09558339564217151 0.2054512299008729 0.1102996470235254 0.06746029897161883 0.06262848422570409 1:-72 2:-73 3:-64 
0 0.1608355719340904 0.06772957684077628 0.160977991335524 0.06403852536254526 0.1374680228399695 0.07393087790982533 0.04465680407101139 0.04151598048449789 1:-72 2:-76 3:-64 
0 0.01500581019393563 0.008121154640396649 0.01780935311311049 0.006618125770786371 0.01557415252806474 0.007707201175739592 0.003964134954535179 0.004165051996756572 1:-74 2:-76 3:-66 
2.332792071579264 0.3746771395683448 0.1582389549201932 0.3755753069434546 0.1514564610998155 0.3226571067888617 0.1750593772048845 0.1072271576009094 0.09873754639133948 1:-74 2:-80 3:-66 
995.5204347472727 0 0 0 0 0 0 0 0 1:-74 2:-80 3:-65 
15.02155035996453 0 0 0 0 0 0 0 0 1:-75 2:-80 3:-65 
4.849197721474251 0 0 0 0 0 0 0 0 1:-76 2:-80 3:-66 
1000 0.224579278422126 0.09325923215888936 0.2234899931201147 0.08814522775826877 0.1964292406352566 0.1039024519541187 0.06235544963816597 0.05774671651131775 1:-76 2:-80 3:-66 
1.994825432127544 0.2436778888419047 0.1031136519435753 0.2422479706070373 0.09959234052069446 0.2096546849541358 0.1157920646319778 0.07034843349945667 0.0637236520811245 1:-76 2:-80 3:-69 
0 0.2979276650396714 0.1261528054484666 0.3009709272890617 0.1180000546425469 0.2587480759755964 0.1354263367235684 0.08264053098638076 0.0786283266427084 1:-77 2:-80 3:-69 
13.23204344066933 0.2665425965404696 0.1137776777758886 0.2672064597922298 0.1083245363845238 0.226711359741094 0.1244921979467814 0.07757625425995152 0.06958099145092683 1:-77 2:-80 3:-66 
0 0.3907515143285151 0.1643879370156187 0.3888279482521365 0.157327696396524 0.3358460142154457 0.1822793798366328 0.1108352722113229 0.1023752177440753 1:-75 2:-75 3:-66 
4.536006274803284 0.8264199864360231 0.3473481317423134 0.8253555295074173 0.3322492112831344 0.7130051223757189 0.3864282721727341 0.2360091659078594 0.2184145959797275 1:-75 2:-75 3:-62 
2.80112156117031 0.560369991015586 0.2362252961085818 0.5583692539655897 0.2246678845710579 0.4842839653730185 0.2607270838339781 0.1599107704218339 0.1461669819749056 1:-72 2:-75 3:-62 
1.773863406709314 0.3770550595067216 0.1592675461753544 0.3785408869018397 0.1520952855596402 0.3251568552413913 0.17598577519333 0.1067586107947189 0.09933577848281179 1:-72 2:-74 3:-62 
2.117419827351879 0.6103924610978104 0.2584500287440488 0.6093752654855632 0.2460779467969436 0.5263259083691004 0.284417702740811 0.1733929712901081 0.1605877611083315 1:-72 2:-74 3:-59 
0.2084342255648358 0.3998151484883088 0.1678726731632228 0.4004514421168499 0.1599149302218146 0.3460682908160305 0.1860278695575014 0.1137037191086315 0.1043229850261822 1:-73 2:-74 3:-59 
1.363742545258883 0.6204716350130514 0.2621771740975101 0.6199990858774734 0.2494046702354171 0.5351426613253401 0.2898095338735406 0.1763531904259302 0.1626359867344407 1:-73 2:-76 3:-59 
2.259223869245691 0.8709239893220339 0.3673906272501783 0.8702694984765214 0.350454180378935 0.7518262152669641 0.4060621882798335 0.2476045285553803 0.2283918642769779 1:-73 2:-76 3:-57 
4.137159222104895 1.04177763482833 0.4396890432691973 1.040969744265854 0.4186404638202085 0.8996408249591186 0.4857691972727233 0.2961817047204669 0.2727424488442876 1:-77 2:-76 3:-57 
1000 0.8183274831619305 0.3453578992881661 0.8177231308183206 0.3290000762111138 0.7063427012992265 0.3813287764535424 0.2326651944125618 0.2148479667566961 1:-77 2:-79 3:-57 
1000 0.6358887572982088 0.2684355281945635 0.6353675480201018 0.2557048603570842 0.5487722024358582 0.2969534622688711 0.1808591049202133 0.166396604999165 1:-77 2:-79 3:-59 
1000 0.6410772117564751 0.27026208081171 0.6403493988806537 0.2579198709872264 0.5529755276727327 0.2985993679914604 0.1822550012466625 0.167454024762549 1:-79 2:-79 3:-59 
1000 0.8658931352763736 0.364904055398859 0.8651014128662284 0.3481637430989048 0.7476066037907976 0.4036658861455229 0.2457963877658993 0.2270530134627174 1:-79 2:-81 3:-59 
1.098089251297079 0.7713052725158284 0.3258359688041612 0.7711659641848686 0.310273521901085 0.6651707830836497 0.3598834105157169 0.2196641818396039 0.2027612854167473 1:-79 2:-81 3:-63 
2.905100935870589 0.475887110417392 0.1995280048441583 0.4751674186143066 0.1909424009713303 0.4108305004156279 0.2214851445910948 0.1359040408068244 0.123707805977749 1:-77 2:-81 3:-63 
3.161243789806937 0.2474964761804365 0.1057621347226998 0.2478801164437801 0.09959301327675162 0.2137882370946952 0.115778204027493 0.06998805043819217 0.06625504346711029 1:-77 2:-81 3:-64 
7.884158581303534 0.2824877608542459 0.1185865585238375 0.2822250118938188 0.1123837065229134 0.2440144829996094 0.1310275194182657 0.0803065560753739 0.07449923549598378 1:-79 2:-75 3:-64 
3.10556310484009 0.8342259416351938 0.3525069591247312 0.8335087399157071 0.3360913161051735 0.71923835459079 0.3894517348078465 0.2370938810515029 0.2183929462660348 1:-79 2:-75 3:-63 
1.275880783628147 0.01077062501581891 0.00606577398247038 0.01149645752153403 0.00379610584136637 0.01001502046245861 0.003487836429601432 0.002043848890850136 0.0007701280517531939 1:-75 2:-75 3:-63 
3.817277913555145 0.6158353697527619 0.2599179952347381 0.6160140779520582 0.2478138944320588 0.5318836977166861 0.2867935179650267 0.174874659254688 0.1616491530720396 1:-75 2:-71 3:-63 
0.8722288301237837 0.65285402251738 0.2742379898928389 0.6501969758762746 0.2618116413773592 0.561051783539589 0.303362601522816 0.1848490891861432 0.1710411343559154 1:-75 2:-71 3:-66 
1.092139310603096 0.7732721711489441 0.3247860691486152 0.7701988519133081 0.3100144945625214 0.6648532895613104 0.3592870084828869 0.2189071581792471 0.2019471187616842 1:-72 2:-71 3:-66 
0.5160539772445919 0.4964571564312811 0.2121989515471333 0.501959345375202 0.2020794638055116 0.4332055923542649 0.2339083577092067 0.1433535895040447 0.130911084454212 1:-72 2:-73 3:-66 
0.5468542933451039 0.4570468256463976 0.1735889700641466 0.4148913621962821 0.1654639845651074 0.3561405156683566 0.1945128303940886 0.1177249645112805 0.1108791933534701 1:-73 2:-73 3:-68 
0.3325607974067892 0.3379890621489668 0.1528403599866808 0.362481669324527 0.1456926150109776 0.3130911021540599 0.1690880055600701 0.1032343609451208 0.09403900340237269 1:-73 2:-72 3:-68 
0.9080106211994597 0.5476062166584528 0.2309847940847116 0.5483511147055374 0.2207225890092733 0.4729475521613356 0.2551994269964913 0.1555668348744416 0.1439339997050866 1:-72 2:-78 3:-66 
1.442420640399309 0.6280112626606316 0.2648070448593259 0.6267007508214175 0.2526895500208417 0.5418832934221445 0.2929779319807704 0.1784825999968873 0.1644580297325867 1:-72 2:-78 3:-64 
1.709643702902826 0.3920414603625588 0.1664474041334479 0.3939026117824535 0.1574441862688458 0.3397686452552358 0.1828184595194653 0.111538779388086 0.1031168156405985 1:-74 2:-78 3:-64 
0.7000910074892536 0.51552506697309 0.2166123533267248 0.5142037670593153 0.2081062354042454 0.4444770728307846 0.2411252536544033 0.1475618496338036 0.1354537664962434 1:-74 2:-76 3:-64 
0 0.5339409048231457 0.2235515973272669 0.5319542322653321 0.2138624751194285 0.4587867906394867 0.247867986379765 0.1519051785058274 0.1396596816154762 1:-74 2:-76 3:-67 
5.354534981780598 0.3404447190541849 0.1431489368816908 0.338977439781619 0.1365597142056359 0.2930474836770015 0.1580669156993494 0.09633453495377034 0.08865454220550671 1:-76 2:-76 3:-67 
0 0.2888998428747263 0.1215568422512015 0.2892139020933527 0.1155999734809869 0.2498817692080851 0.134153578050797 0.08171599625702215 0.07491201893974857 1:-76 2:-79 3:-68 
0 0.118643836799601 0.05264673762210498 0.118953737931703 0.04783590686459615 0.1038721258421844 0.05560647319773494 0.0332920779848131 0.03117038309342648 1:-79 2:-80 3:-70 
0 0.08478630433445594 0.03516948923965913 0.08302784429143746 0.03426350117481065 0.07182701416386114 0.04062855164866579 0.02520053529382672 0.0211415252092238 1:-77 2:-80 3:-70 
0.1433145752150413 0.363191924123117 0.1533680391245557 0.3645093437837598 0.1464801147576486 0.3150750146545528 0.1689921390197584 0.104113689282561 0.09603013909998766 1:-76 2:-79 3:-71 
1.550213674201408 0 0 0 0 0 0 0 0 1:-76 2:-80 3:-71 
0.2512060560692871 0.7017996155557062 0.2952634537991305 0.6979294341312243 0.2807322490813742 0.6027487699340058 0.326111470127094 0.1980317092170668 0.1829732474803315 1:-76 2:-80 3:-72 
0.09417739774842623 0.04378608159759398 0.01897334371151436 0.04132516461754655 0.01639209044479566 0.03687351745087873 0.01968649324319246 0.01241111158489409 0.01183054884940923 1:-80 2:-80 3:-72 
0 0.231081736350892 0.09715248147279883 0.2349826120719251 0.09247499653651321 0.2021216944533928 0.1050266084102091 0.06445547696551956 0.05774223190013452 1:-79 2:-80 3:-68 
0 0.2969787828920481 0.126670575550351 0.2948327989264785 0.1202781367780164 0.2564204088904343 0.1398096898400039 0.08362064798725125 0.07619735362244341 1:-79 2:-77 3:-68 
0.7424515358277645 0 0 0 0 0 0 0 0 1:-79 2:-77 3:-67 
5.549274567880156 0.1829358020015538 0.07550769954549924 0.1815486499292556 0.07569508519711175 0.1574347721169086 0.08601058181674946 0.05342902892588558 0.05136507803904594 1:-78 2:-77 3:-67 
-4.705572873520478 0 0 0 0 0 0 0 0 1:-79 2:-76 3:-64 
-1.432724601475533 0.4794962433579489 0.1760389348177855 0.4782168177833887 0.1665112782799208 0.3992385072416124 0.1970889330625428 0.1154458466710421 0.1052112372329379 1:-71 2:-76 3:-62 
-0 0.2384076880018018 0.08821075356541735 0.2391770205754854 0.08410321361165535 0.1996573631869484 0.09750121554682878 0.05685984079106934 0.05357358267930169 1:-71 2:-76 3:-60 
-0.3691522131372895 0.5536933761475344 0.2039932572054168 0.5544644255781822 0.1942814902918127 0.4626626719734003 0.2273596613549755 0.1331771654285573 0.1224277144816188 1:-69 2:-76 3:-59 
-0.2730222770187266 0.1312221560167401 0.04741405724878493 0.128293890476346 0.04329661926199917 0.1075646025708974 0.05393785361949835 0.03206027993639089 0.02826555807352156 1:-70 2:-76 3:-59 
-0.1871100585766635 0.4883970231769581 0.1795847042417307 0.4868680264453881 0.1691162664620471 0.4064507427448956 0.2006138336790405 0.1175230015650114 0.1077234846929948 1:-69 2:-76 3:-61 
-0.5536762648403964 0.6808056615719843 0.2510408892625223 0.6796887331961099 0.2365154791724193 0.5674542994277778 0.2796220282446266 0.1638652520766637 0.1505695948563258 1:-69 2:-79 3:-61 
-0.1076327391204531 0.4992564978047219 0.1863466210882336 0.5041286801770939 0.176240071410452 0.4211365728032301 0.2077154207547421 0.1206341555943934 0.1108317039562557 1:-70 2:-81 3:-63 
-7.150413485636538 0.2671026244879808 0.09587804170107249 0.2604392380267495 0.09056117762889709 0.2177274503646538 0.1067912153691956 0.06369493065997785 0.05704383844184506 1:-73 2:-81 3:-64 
-0 0.008862951442660045 0 0.0008086957326923216 0 0.0005961007867922902 0 0 0 1:-73 2:-83 3:-64 
-0.159086794036793 0.1743560830236871 0.06558932822276066 0.1749175997473107 0.06065997970274781 0.1459218444522666 0.07085219022622696 0.04263970473484652 0.03857910289693881 1:-73 2:-83 3:-61 
-0.2734241085142309 0.4254574793970303 0.1554144475547068 0.424572229329137 0.1479690230130368 0.3541818708300342 0.175177870646832 0.1020392736129925 0.09386206750218301 1:-73 2:-84 3:-61 
-0.4378305570241448 0.4775890419900501 0.1751875918360806 0.476630554908873 0.1661497213065362 0.3975990065352423 0.1967984445996896 0.1149504316389167 0.1057683577912607 1:-77 2:-84 3:-61 
-0.39418190042487 0.4874711563664343 0.1800479590375987 0.486227213404522 0.16899342366175 0.4072668240452754 0.199272400945496 0.1178674827574685 0.1084544186596689 1:-77 2:-88 3:-61 
-0.3030903955908513 0.3702053719286849 0.1353921826735952 0.3700658320814331 0.1294589875877292 0.3077649214441829 0.1531433554706509 0.08838705479368469 0.08089712447195957 1:-78 2:-88 3:-61 
-0.3049991605763332 0.3900818467494472 0.1438763845573588 0.3893258177486919 0.1352208344832971 0.3254869868998788 0.1598932647551898 0.09407166663555776 0.08595718652941939 1:-78 2:-86 3:-61 
-0.5489019365893113 0.6755966076029601 0.2485417150690984 0.6740600609110606 0.2349350339404067 0.5631763920199736 0.2774405301422625 0.1624317460567583 0.1492683414876312 1:-78 2:-86 3:-63 
-0.2297416334724319 0.3218675416932316 0.117810498337103 0.320432250153486 0.1123631914983228 0.2683302666559179 0.1309848301941484 0.0762196064099053 0.07153058340708052 1:-74 2:-86 3:-63 
-0.921731613643432 0.1182040599837683 0.04500384947397731 0.1233794819145297 0.04275050576631947 0.1030280113966035 0.05152687440718802 0.03029832999427385 0.02786641771010304 1:-74 2:-83 3:-63 
-1.129646381167406 0.1021820316628527 0.07637192206559501 0.200030169739875 0.07288108516698012 0.168648510381977 0.0820323371061064 0.04753017372592615 0.04313942201177991 1:-74 2:-83 3:-68 
-0.07422804757009728 0 0 0 0 0 0 0 0 1:-71 2:-83 3:-68 
-0 52.76419082595104 0.01490169981558495 0.01923988510172242 0.004694197697002641 0.01505315602426805 0.01435751538260879 0.01243592445665286 0.001769057604980824 1:-71 2:-80 3:-73 
-0.001336948318362685 0 0.04536190134371461 0.10188562546907 0.03072644008605765 0.08357773643879961 0.0482298523273296 0.03106361587769022 0.01804445630701906 1:-71 2:-80 3:-71 
-0.3634913744031403 0 0.1645633779637545 0.4489958469985023 0.1559629418999088 0.374559965113448 0.1848172290073187 0.1080783900404144 0.1005879865568906 1:-66 2:-80 3:-71 
-0.3838654477925701 0.9124365473744185 0.1732658406124924 0.4698056524483075 0.1644451263784674 0.3936072795401953 0.1930848900789621 0.1136925911697903 0.1035172525573076 1:-66 2:-78 3:-71 
-0.4329510532582019 0 0.2012686655136597 0.5449467915017394 0.1894257102925342 0.4539715799076222 0.2242879551261538 0.13161702423467 0.12048956982869 1:-66 2:-78 3:-69 
-0 2.777050245444344 0 0 0 0 0 0 0 1:-67 2:-78 3:-69 
-0.3989344532918871 0.01458675278435044 0.1569462374648488 0.421854307940322 0.1463533207767512 0.3535302830650532 0.1748449092468876 0.102416683199487 0.09376876507979427 1:-67 2:-78 3:-67 
-0 0.09295394431780124 0.03145897809786418 0.08763338334787964 0.03187374997248375 0.07348867394007294 0.03576117998762657 0.02090007956250752 0.0193967329612387 1:-68 2:-77 3:-67 
-0 0.4252233718551264 0.08735487156966724 0.2392690863264316 0.08253478790986818 0.1970830333679773 0.09770452419978885 0.05641313482630325 0.05210839882632609 1:-68 2:-77 3:-66 
-0.8750062832543402 0.332136689227039 0.1681712723006293 0.4532940122355748 0.1576285927500948 0.3808607885291893 0.1874002569702332 0.1108741757420834 0.1012412248820312 1:-69 2:-77 3:-66 
-0.02979685344560451 0.2604718085537685 0.07311890700283408 0.20081931059846 0.06956588340826891 0.1676555902744454 0.08212629520591455 0.04827944153827497 0.04448176768686354 1:-69 2:-79 3:-66 
-0.09718083976402407 0 0.05312776733543192 0.1408797398978398 0.04788143063136327 0.1158680066034569 0.0591388786131497 0.03587144968308539 0.0281924652877458 1:-69 2:-79 3:-69 
-0 0.1339649734990889 0.06133259529385562 0.1658962188136874 0.05936572420561921 0.1379152942765102 0.06809362577302952 0.03930025799789192 0.03550894774017661 1:-74 2:-79 3:-69 
-1000 0 0 0 0 0 0 0 0 1:-74 2:-80 3:-65 
-1000 0.4440574792965192 0.1631085485348806 0.4435113188254877 0.1545556982364276 0.370165887613953 0.1827755600423359 0.1069424363794806 0.09913802564334952 1:-74 2:-80 3:-65 
-0 0.1467069062398738 0.05461135474762741 0.1471770937544998 0.05163784206844139 0.123816083590951 0.06025718383208264 0.03529844490737406 0.03256270678271258 1:-74 2:-82 3:-65 
-0 0.2437816949558137 0.09809596615301515 0.2658776445605231 0.09262724187157596 0.2202212329061282 0.1098414410868364 0.06321481015022319 0.0588232688279029 1:-72 2:-82 3:-65 
-0.09938703698732634 0.1065907611565714 0.009103036818881976 0.03335947674695592 0.008975138494793537 0.02665250120064032 0.01496266398490628 0.007806508060192524 0.008251827939876225 1:-73 2:-83 3:-68 
-0.5860428520655588 0.7108980961666107 0.2673187427886037 0.7253553420774203 0.2519632826111479 0.6049977523231901 0.2980136051311081 0.1748290140870657 0.1605409978211008 1:-73 2:-86 3:-77 
-0 0.05140425804455091 0 0 0 0 0 0 0 1:-73 2:-85 3:-77 
-0.4316581045143973 0.5531784718664451 0.1972193743808367 0.5289455391338408 0.183430625163462 0.4435653079019866 0.2179913874244191 0.1288103422247583 0.1185277131394348 1:-73 2:-85 3:-74 
-0.04985570224410687 0 0.02774338678074019 0.0696357379600652 0.02063848849731969 0.05867250996709256 0.03131545423137779 0.01559062893811584 0.01424740240260775 1:-72 2:-82 3:-74 
-0.1162966036562892 0 0.08646484733748941 0.2295359255190978 0.08086979405896273 0.1935886288525371 0.09466943017746143 0.05681880371090496 0.05243829449193771 1:-72 2:-82 3:-72 
-0.05805052586701098 1000 0.0414519049618205 0.1084296325878518 0.03715823604174446 0.08943872722779039 0.04645082554253648 0.02651294514491596 0.02223978085053911 1:-70 2:-79 3:-72 
-0.206049131914208 993.1712804531705 0.09776698150461695 0.2740157489425003 0.09455215937365535 0.2293227837504173 0.1102634670646915 0.06313480356269335 0.06276923322161743 1:-70 2:-79 3:-70 
-0 39.33276165693533 0 0 0 0 0 0 0 1:-69 2:-79 3:-70 
-0.199511786626709 0 0.1085499465489178 0.2953542200736169 0.1029775483187422 0.2449443412937612 0.1223806465990097 0.07180472743384222 0.06628784975364704 1:-69 2:-74 3:-70 
-0.400882662165541 4.370197834682395 0.1747116025921147 0.4720852560778738 0.1639631606790337 0.3965945555265145 0.1939051157770143 0.1132729400848094 0.1039887920024361 1:-69 2:-74 3:-71 
-0.07212335125673187 0.315649247622668 0.03365911071148446 0.0937748841828142 0.03296432558282274 0.07566392960344748 0.03844271208428628 0.02224527101466578 0.02125310194602431 1:-67 2:-74 3:-71 
-0.4436102084240744 0.3814310937770691 0.2021924123913776 0.5470656810462592 0.1898509387321096 0.4576431402459396 0.2249269859583085 0.1318823207346794 0.1212910468932213 1:-67 2:-72 3:-71 
-0.4433963727096948 0.5795587375727499 0.2018589319987282 0.546808410941378 0.1907425333995479 0.4563459437047995 0.2250575864038266 0.131851142234824 0.1207529232920797 1:-65 2:-72 3:-71 
-0.2369260549269722 0.3460783553017021 0.1076266302935109 0.2913317103441614 0.1007239066622161 0.244221279592655 0.1198435866467331 0.0706946488977503 0.06428951745828321 1:-65 2:-74 3:-71 
-0.3403247073629542 0.4374722233023222 0.1550239988896901 0.421999890670138 0.1476031379605307 0.3516847566701679 0.17396897267501 0.1014103334517419 0.09350443803983198 1:-65 2:-74 3:-70 
-0.2748056064321318 0 0.1218251717410518 0.3279999136775274 0.114013025445068 0.2759765396236373 0.1347549287197007 0.07896932659645788 0.07161120001366664 1:-67 2:-74 3:-70 
-0.0738568617257165 4.096386280915836 0.03240005895295189 0.08899544544105625 0.02943310778957802 0.07397219861283162 0.03522006832539801 0.02158713267318279 0.01822186175901639 1:-67 2:-80 3:-70 
-0 0 0.04452898099599639 0.1370257575953115 0.04282274369253675 0.1160824412009986 0.05068951387295703 0.02993853954292106 0.03244366445606247 1:-71 2:-81 3:-70 
-2.582560332086931 0.2867131428813223 0.1227228373794642 0.333608822860031 0.116451691387011 0.2792621232152195 0.1358009734075705 0.07974812865384497 0.07309202450505739 1:-75 2:-81 3:-70 
-0 0.4404522542650096 0.1753602664807538 0.4779194300972225 0.165950186514867 0.3984166505117533 0.1960756482160749 0.1149979994875642 0.1049541111046362 1:-75 2:-78 3:-70 
-1.677607158831036 0.2348885842459574 0.07966647980639084 0.2133225246494821 0.07343268796391758 0.1790229655421262 0.08825401319714661 0.05217451802775881 0.04810554955469788 1:-75 2:-78 3:-69 
-0.2310609535908099 0.3863137251582203 0.08438748894948822 0.2338969033484175 0.07979811329561529 0.1942357416415419 0.09653634772602192 0.05716037776827208 0.05303782973240819 1:-75 2:-83 3:-69 
-0.06545439214276927 0.2068910504369525 0 0 0 0 0 0 0 1:-72 2:-83 3:-69 
-1.106801626217351 0.05548133695586786 0.09012787890442857 0.2360162657723432 0.08525457288189678 0.1966476597654824 0.1002471423320443 0.05939967410652632 0.05254043772154799 1:-72 2:-81 3:-69 
-0.7591287327230228 0 0 0 0 0 0 0 0 1:-74 2:-81 3:-70 
-1.53418089252122 0 0 0 0 0 0 0 0 1:-74 2:-82 3:-70 
-0.4096357415350662 0 0.1602544323950278 0.4311699416415752 0.1511678849816106 0.3613958094250235 0.1784515114672515 0.1051337297614052 0.0962648588569707 1:-74 2:-82 3:-74 
-0.1463933084505762 0 0.05530885405940562 0.1546640717566856 0.06063126522704555 0.1298235877355876 0.06018618617469963 0.03873197969656675 0.03644758433685461 1:-71 2:-82 3:-74 
-0.1974328020187027 0 0.08198022192308013 0.2284945202031577 0.07799504395013011 0.1871717656551961 0.09620538265413565 0.05290149276793103 0.04744259813300468 1:-71 2:-83 3:-73 
-0 1000 0 0 0 0 0 0 0 1:-68 2:-82 3:-73 
-0 1000 0 0 0 0 0 0 0 1:-68 2:-82 3:-73 
-0.126484917090021 10.79264138642355 0.05795493566716214 0.1558799487592237 0 0.1306675061731159 0.06312157433723654 0.03717325187778497 0.0337096571390043 1:-66 2:-81 3:-76 
-0.2002665848759361 9.321462464615808 0.09058361939628666 0.2464443825833919 0.08850427007568434 0.2066185506930216 0.1011149736650485 0.05945657704212942 0.05442074559898633 1:-66 2:-76 3:-76 
-0 2.848374781965209 0 0 0 0 0 0 0 1:-64 2:-76 3:-76 
-0.3316567604569263 5.250867735093048 0.1504531572015223 0.406944225850903 0.1424433038669477 0.341101181170435 0.1681405046557375 0.09854512478895329 0.09054866665573072 1:-64 2:-75 3:-76 
-0.574207153568595 6.869947571702218 0.2617870212919007 0.7118288795298687 0.2468361556854782 0.5924672743483737 0.2916760537058427 0.170915710252433 0.1568870841718603 1:-64 2:-75 3:-78 
-0.4574241275009441 1000 0.2079297616345471 0.5655030442397403 0.1824823287366876 0.47141888583648 0.2323099116231914 0.1359949160310892 0.1245259960962961 1:-64 2:-78 3:-78 
-0.08643527596127258 0 0.0408569039059866 0.1023708615578251 0.05665342914296088 0.08815424521809072 0.04254820013930033 0.0272109218664498 0.02525314464739562 1:-64 2:-78 3:-75 
-0.04547147668348675 12.46416977772753 0.02072107528260396 0.05870075656320689 0 0.04658476175497386 0.02552245153066009 0.01234921610335587 0.01127229264696236 1:-65 2:-78 3:-75 
-0 9.464256735922207 0 0 0 0 0 0 0 1:-65 2:-79 3:-75 
-0.2582590284777648 1000 0.1169168862254672 0.3214094641489512 0.1125987329194873 0.2682126036683328 0.133170837225039 0.078807313637255 0.07079469700927707 1:-65 2:-79 3:-74 
-0.2029702048813098 0 0.0926414750985992 0.2471822907470615 0.08838060503226379 0.2062331670694958 0.09924443741774719 0.05825889748007427 0.05513226768241609 1:-66 2:-79 3:-74 
-0 1000 0 0 0 0 0 0 0 1:-66 2:-81 3:-74 
-0.1943081142501277 0.3510792740057779 0.08885959332120962 0.2343378023185819 0.07729459887062123 0.197427535616808 0.09456562843583854 0.05686352347848297 0.05118553450592145 1:-66 2:-81 3:-73 
-0.05716639478991105 14.74909162398644 0.04863596761333096 0.1359443324983907 0.0451392192323597 0.1108077775613309 0.05745646192377096 0.02848775102676673 0.02705202126994266 1:-70 2:-81 3:-73 
-0.04464748391134817 0 0.01722890669222121 0.03952021024694376 0.01097301095687853 0.04074477694245965 0.0132154998045888 0.01422912595147159 0.01315369694441469 1:-70 2:-82 3:-72 
-0.1241464605369938 7.546688783155056 0.05589691205065038 0.1606498132068843 0.05452263035898854 0.1323903193942598 0.06505935365139238 0.03613196780011622 0.03449455409025107 1:-68 2:-81 3:-72 
-0.102104894626095 0 0.04470165379788763 0.1217760979868084 0.04129131217456112 0.1034666243422453 0.05109489460635923 0.0313874040078336 0.02789859896911356 1:-68 2:-83 3:-72 
-0 9.684792714938123 0 0 0 0 0 0 0 1:-68 2:-83 3:-73 
-0.08067440832310917 0 0.03559489207985944 0.1033697983561438 0.03805944847597765 0.08229253428296446 0.04218261109894666 0.02548785083454766 0.02373388552703182 1:-66 2:-84 3:-73 
-0.3280865996252704 0.4000809472584038 0.1487396900778874 0.4027860179537803 0.1401307889500122 0.3377877424635562 0.1663032667214495 0.0974746000466441 0.08925876599788916 1:-66 2:-84 3:-71 
-0.2836884590899725 0 0.1292131640989904 0.3503620262519619 0.1211461410861496 0.2919601930395961 0.143071519055355 0.08405533603221693 0.07736807860203461 1:-66 2:-83 3:-71 
-0.2744748208431728 0 0.1271388737436346 0.3328620477214108 0.1067615686858783 0.2837900757509967 0.1366154021059366 0.07971565354422515 0.07173365251491078 1:-66 2:-83 3:-74 
-0.1102018231620804 0 0.0509277679084441 0.1384826599472975 0.05218088931189716 0.1162201277986712 0.05867096673214535 0.03310615579606877 0.0302982767864379 1:-66 2:-82 3:-73 
-0.004516103894406978 0.8516416781700288 0 0 0 0 0.001898137143131079 0 0 1:-69 2:-82 3:-73 
-0 1.519968403996621 0 0 0 0 0 0 0 1:-69 2:-85 3:-74 
-0.3603348932005657 1.130882091103624 0.1641944514226089 0.4463651225009814 0.1454451099048456 0.3716936506184742 0.1845501701877378 0.1066202458498453 0.09800968494546811 1:-70 2:-83 3:-75 
-0.5360736574099745 0.3061662022339007 0.2451063575197613 0.6623964404957146 0.2277885702567257 0.5541404167038498 0.2721124792435842 0.1604426516538908 0.1471003967051285 1:-70 2:-86 3:-75 
-0.3779235500050635 0.4968160176249541 0.1719230578738918 0.4704679553697592 0.1646086453980397 0.3909321012750481 0.1942979089912122 0.1116691804501839 0.1024236496312968 1:-70 2:-86 3:-71 
-0 1.718106941897515 0.1591728006345949 0.4315143763983336 0.1510842159533402 0.3600855522679439 0.178467510299603 0.1044952338547119 0.09594774218963688 1:-73 2:-80 3:-71 
-0 0 0.05311351063303631 0.1493633097557339 0.04924191399631872 0.1254536481826539 0.05865985936911217 0.03331261604379846 0.03189125697506519 1:-73 2:-80 3:-69 
-5.347763918516069 0.1504325956150737 0.07637841048118479 0.2059862991865654 0.07169741010702778 0.1715441259039903 0.08636930152872205 0.05206166341703722 0.04731248759672494 1:-74 2:-80 3:-69 
-1.17097586792103 0.9077919078928794 0.2742941957805989 0.7434496455255662 0.2592039357030566 0.6209309984557081 0.3059955728267624 0.1794745794157324 0.1645470952572859 1:-74 2:-76 3:-69 
-0.8164688994315469 2.374128006407568 0.2695469580967289 0.7307793978048809 0.2542463398927995 0.61033972838258 0.3006762620896197 0.1760930406485089 0.1619580717371981 1:-70 2:-76 3:-69 
-0 0 0.009746817378995036 0.02144878869564128 0.00826699469461549 0.01796543399803249 0.01027108946542721 0.005180047648847031 0.004915510952222474 1:-70 2:-80 3:-69 
-0 21.35480349727606 0 0 0 0 0 0 0 1:-70 2:-80 3:-72 
-0.07345411900373759 18.13192129466087 0.03192454348328323 0.08405081506042518 0.03215458355026615 0.07350295588599208 0.0378573135744508 0.02354791004523347 0.02032994934593954 1:-68 2:-80 3:-72 
-0.04512451945767099 1000 0.021572679631708 0.05818984566742282 0.01506583316891183 0.04574787424707399 0.02036694753451788 0.0116012098791056 0.01141122175810902 1:-68 2:-80 3:-73 
-0 118.1216981049905 0 0 0 0 0 0 0 1:-69 2:-80 3:-73 
-0 24.14544166359007 0 0 0 0 0 0 0 1:-67 2:-80 3:-73 
-0.1528337126055688 9.863212487481317 0.06955184801416991 0.1920072318357584 0.07258395167919078 0.1615039263307129 0.0821845586243156 0.047439039958765 0.04336416160321388 1:-67 2:-80 3:-74 
-0 1000 0 0 0 0 0 0 0 1:-68 2:-80 3:-74 
-0.3809672309049328 1.254441359122864 0.1724484690426706 0.4701567241875602 0.1635362678776223 0.3933224998185671 0.193695676662957 0.1131330277109997 0.1039050654236031 1:-68 2:-74 3:-74 
-0.09643467672387068 1.792070678365962 0.04442811312861947 0.1190480628714956 0.04047280900910609 0.09815633975352839 0.04913451605285599 0.02926763119374755 0.02571715747962709 1:-68 2:-74 3:-75 
-0.4319266422773941 1.94626450970389 0.1963271798844963 0.5320730082569659 0.1863585343341953 0.4445715447235628 0.2187472237301422 0.1278407711274709 0.1185203834976623 1:-69 2:-74 3:-75 
-0.4559858660354667 23.09039282943587 0.2084692931940278 0.5612877499363166 0.1983826233585118 0.4682070882709522 0.2319336061680748 0.1364920266458673 0.1231734839862641 1:-69 2:-80 3:-75 
-0 1000 0 0 0 0 0 0 0 1:-69 2:-80 3:-74 
-0.09712913743815635 66.55662878755821 0.03923513478415359 0.113993902669563 0.03876990382071709 0.09684357409615603 0.04430489404065315 0.02579734879737123 0.02731436183984803 1:-70 2:-80 3:-74 
-0.008163621954465513 0 0.01428388483635568 0.02748748450261528 0.00498270700978864 0.02904220686049957 0.01092307485337813 0.007168404879450197 0.004176501341219632 1:-70 2:-83 3:-70 
-0 0 0.0820044993182308 0.2187773460329251 0.0744448623006283 0.1833195273059879 0.09073548865383103 0.0511649079816899 0.04618954284221584 1:-72 2:-83 3:-70 
-0.08257259954483127 0.1464634423915657 0 0 0 0 0 0 0 1:-72 2:-84 3:-70 
-0.01547939098991152 0.1269361343030876 0.09750193893943818 0.2596990465236041 0.09155077165773676 0.217450744526905 0.1062221326667732 0.06183746296286145 0.05700782877435163 1:-72 2:-84 3:-68 
-0.3203670306366225 0.3136942305571871 0.12851537909014 0.3492888240638451 0.1214881824489631 0.2910458282171091 0.1438170793064469 0.08397237943646099 0.07675394021774982 1:-72 2:-84 3:-66 
-0.2472922222720651 0.4912382625031235 0.1787244682852803 0.4853042128722617 0.1687499333622314 0.4062348469616127 0.1991747881761771 0.1178785414978152 0.1084621878116408 1:-72 2:-84 3:-64 
-0 0.3652310883625289 0.1352079699863605 0.3662467491853122 0.1274861938960836 0.3052542061018953 0.1501767430023186 0.08835757092378989 0.08052844060419881 1:-75 2:-84 3:-64 
-13.35769705826503 0.1469229744636427 0.05463837857945392 0.1480029098084041 0.05079674751478699 0.1231789286953128 0.06071607525381009 0.0346878687213094 0.03233559073676165 1:-75 2:-81 3:-64 
-0 0.0489101214621005 0.01421930460474742 0.03900276648612214 0.01324652765960605 0.0350339100831752 0.01565931269338764 0.01019975090418586 0.009072204508519916 1:-71 2:-81 3:-65 
-6.346978523038567 0 0 0 0 0 0 0 0 1:-74 2:-81 3:-65 
-0 0.2341381362286279 0.1072148345578769 0.2878788262051084 0.09984976407208736 0.2405098705795011 0.11845409907083 0.0687161078955843 0.06296726838908791 1:-75 2:-84 3:-69 
-0 0 0 0 0 0 0 0.0007911958628889948 0.0002894310229500812 1:-73 2:-84 3:-69 
-0 0.1843622190672248 0.0535549240858476 0.1470215108277922 0.05209095688863603 0.1225570728898926 0.0595555286768893 0.03502813628861203 0.03236456768399339 1:-73 2:-84 3:-70 
-0.01377231050911672 10.56488307370989 0 0 0 0 0 0 0 1:-69 2:-81 3:-70 
-0.1183575995111192 0 0.04350074785837024 0.1363407433759559 0.04014413091703153 0.1159882061785637 0.0495416915869024 0.03263850080903555 0.03357989831796299 1:-69 2:-81 3:-71 
-0.03773543834775503 0 0.008583285445088868 0.006363310359270571 0.008082430483178044 0.005922874381609822 0.008759743465068791 0.004840089285804423 0 1:-70 2:-81 3:-71 
-0.07864593623608644 0 0.05033057382793354 0.1411559792012475 0.05211245226707313 0.1093000950447616 0.0599688244293164 0.02814057317925355 0.02663092363145805 1:-70 2:-82 3:-71 
-0.2301872087507856 1000 0.1043728941829976 0.2831954324345203 0.09950060382017528 0.2384172630957317 0.1158220717952197 0.0685401186915708 0.06366656315315204 1:-68 2:-82 3:-74 
-0 46.88211842372016 0 0 0 0 0 0 0 1:-68 2:-81 3:-74 
-0 1000 0 0 0 0 0 0 0 1:-68 2:-81 3:-73 
-0 1000 0 0 0 0 0 0 0 1:-68 2:-81 3:-73 
-0.485304071149091 0.6509458582223998 0.222424447887327 0.6033115130508854 0.2100210530836064 0.5038855394959579 0.2480654975902106 0.1454148683926129 0.13309836551821 1:-68 2:-85 3:-69 
-0.2459383027754223 0.3791531703190569 0.1127066455728894 0.2991652432401563 0.1032742338144203 0.2535518607355251 0.1230491417497649 0.07466301595308279 0.06813026255552905 1:-70 2:-85 3:-69 
-0.09756881803579387 0 0.03466758047613528 0.1032950897887594 0.03670317743011022 0.08081221973057749 0.04286947769699122 0.02194296788649704 0.02117208650934271 1:-70 2:-84 3:-69 
-0 0.08727101221899421 0 0 0 0 0 0 0 1:-71 2:-84 3:-70 
-0.2108046400816758 0.337004889666227 0.0555070737028157 0.1510631723318214 0.05231887556428511 0.1280363975031459 0.06322247014598315 0.03775446787783857 0.03481817037236756 1:-71 2:-83 3:-67 
-0 0.1860983359529329 0.06178553845816483 0.1664517056111432 0.05781335813989016 0.1393673082545771 0.06758331499206242 0.04114843815327291 0.03695610607532736 1:-73 2:-83 3:-67 
-0 0.4447704757144326 0.160540659944472 0.4369339631636809 0.1512199196019131 0.3647019283154195 0.1802573111814198 0.105583021628779 0.09710667418811382 1:-75 2:-83 3:-66 
-0.3777047783391558 0.3811665739366696 0.1391805538660207 0.3789258431894286 0.1323918887901428 0.3161726660655276 0.1554908893068151 0.09120688657685938 0.08356801137121717 1:-75 2:-85 3:-66 
-0.1693691961360033 0.2227830278466476 0.0820532615007938 0.2233281414432694 0.07702400253385643 0.186668323498888 0.09230813740663285 0.05488374647210188 0.04945385171958427 1:-75 2:-85 3:-62 
-0 0.3076235125205105 0.1122426785450419 0.3034096735891846 0.1060784995897183 0.2537125689728583 0.1241146180902986 0.07245709875757327 0.06698181469949263 1:-75 2:-83 3:-62 
-0.2324068196267472 0.2892646409457581 0.1070376080144205 0.2892315909701932 0.09994789338232651 0.2414556524523667 0.1198777952730939 0.06974698805360102 0.06335631424517862 1:-73 2:-83 3:-59 
-0.3707351703836807 0.4406302976655365 0.161234478294648 0.4394811035695372 0.1534793474744226 0.367240568552237 0.1800876015882668 0.1057979084265867 0.09814421661269808 1:-73 2:-82 3:-59 
-0.0435127847184401 0 0 0 0 0 0 0 0 1:-75 2:-82 3:-59 
-0.1831885832778622 0.2630430473552662 0.09706285721736524 0.2620596017263387 0.09125421627966522 0.2190796970214389 0.1084627910255069 0.06332513148861144 0.05800338649021651 1:-75 2:-83 3:-59 
-0.04015001015114601 0 0 0 0 0 0 0 0 1:-75 2:-83 3:-60 
-0.4537895595295584 0.5480594185942828 0.2022600702110375 0.5471066003488061 0.1906152302879431 0.4573121832619079 0.2247916433080418 0.1314845326561112 0.1214041028533086 1:-75 2:-85 3:-60 
-0.1171220054321223 0 0 0 0 0 0 0 0 1:-75 2:-85 3:-64 
-0.1679345733380344 0.1922254604064318 0.07107356718726875 0.1910497236716541 0.06647623106083189 0.1594670893030516 0.07982892279095266 0.04595436518145331 0.04164066132301743 1:-73 2:-85 3:-64 
-0.1928314150995384 0.1212448720938529 0.03133211150277005 0.08560238606775333 0.02904114803223117 0.07235172832315614 0.0364967412493193 0.02137292172579745 0.02040968775234776 1:-73 2:-85 3:-71 
-0.2932268603037902 0.4097380956885631 0.1364102220883614 0.3780775076712111 0.1340182817943598 0.3125593735423794 0.1566934248410646 0.08849297669736141 0.0810824981413846 1:-72 2:-86 3:-72 
-0.07148753843283197 0.08997538636207915 0.0312897105533165 0.07607624921182869 0.02408907283561286 0.06734891566062712 0.0300237767347502 0.02186998299377427 0.02011247374837591 1:-71 2:-86 3:-72 
-0.3185391393156674 0 0.06586456218364233 0.2101013703871626 0.07736803673567826 0.1774054188179461 0.07636619568818308 0.04093299188407441 0.05248864475977497 1:-71 2:-80 3:-72 
-0 0.8650966615309347 0 0 0.003311248840420875 0 0 0 0 1:-71 2:-80 3:-70 
-0.9911044603665318 0.4777295520170654 0.1800865883595288 0.4890369467459762 0.1704826133477573 0.4075561690072604 0.2014527279908315 0.1174706277513321 0.1085745929411774 1:-71 2:-79 3:-65 
-0.5600501794200696 0.3951336082829908 0.1441690001428874 0.3907931531822048 0.1357079442053517 0.3262027522706903 0.1604929588468523 0.09458165118425925 0.08668382787842661 1:-71 2:-79 3:-63 
-0.1267922575713938 0.3515417032921971 0.1315764411061948 0.3548886196723362 0.1237325137018437 0.2979304086326464 0.146503289219656 0.08411641741270021 0.07760665395817247 1:-69 2:-79 3:-63 
-0.2146335568927406 0.01167091269772127 0.0008314692657096502 0.005707360077063215 0.001236552079773693 0.003505434323419649 0.001778163980054074 0.003337181384032834 0.002464237087235146 1:-69 2:-80 3:-63 
-0.2493041490646402 0.3344908883908884 0.1280726341767484 0.3448140682820218 0.1203599575453682 0.2884595297849071 0.1422669831581641 0.08348919525719806 0.07578103753552609 1:-69 2:-80 3:-65 
-0.2705562958984256 0.4173717623509468 0.1472569526420453 0.4003199336750959 0.1393155631871072 0.3329275811991014 0.1650692639402705 0.09654135130887045 0.08828995947936706 1:-70 2:-82 3:-65 
-0.479145936331772 0.4117878950516638 0.2044120028936769 0.5532802752851245 0.1928907446379047 0.4626599900756468 0.2273737060825699 0.133841305218098 0.122454228624494 1:-69 2:-82 3:-67 
-0.5143855275492824 0.6304792345619429 0.2338423537070793 0.6347004351170104 0.2215035170134559 0.529796125902763 0.2615579821978946 0.1530019364530254 0.1400778447477137 1:-69 2:-87 3:-67 
-0.5686157829166866 0.7037894079323141 0.2588610863118847 0.7010467466987609 0.243900059834357 0.5855563838833097 0.2884331098212582 0.1690742868284759 0.1557412979576381 1:-69 2:-87 3:-65 
-0.350255555308787 0.4656536974098908 0.1717201793342487 0.4655061437030301 0.1620387351410301 0.3888881338241553 0.1908605901138577 0.1111501748271167 0.1039977549774358 1:-75 2:-87 3:-65 
-0.08395465658365299 0.1045258819654427 0.03815554911293435 0.1015853097045552 0.03606339258696533 0.08538411441133348 0.04390504221515482 0.02583284470828508 0.02179115455272544 1:-75 2:-87 3:-64 
-0.2536213126551033 0.2972956297275102 0.1101410839481465 0.2996506041628905 0.102853443560002 0.2492378513617129 0.1223065221248365 0.07278733207686817 0.06597395577190375 1:-74 2:-87 3:-64 
-0 0.0244394833752003 0.006673008074954745 0.02117758419761732 0.008344994163668878 0.01681225432476286 0.008977331448630495 0.005534793582811947 0.004295643880495463 1:-74 2:-86 3:-70 
-0.2665386747591762 0.2711001621346958 0.1146679529894206 0.3130414404967176 0.1087290841320532 0.2606106336916255 0.1292058666612279 0.07568438298151646 0.06988531490304373 1:-72 2:-86 3:-70 
-0.1025008196098421 0 0.04048986534941888 0.1190843514004194 0.04207400666226452 0.09642203471527032 0.0507493107617055 0.02567587094399939 0.02304764052236582 1:-71 2:-85 3:-74 
-0 0 0.008767262896806552 0.007061042700519145 0.005580669863198656 0.01197241853390106 0.002145811756714175 0.006179940748696587 0.006350074621868381 1:-71 2:-84 3:-74 
-0.1683929273029177 0.1234595590427027 0.1036680928546623 0.2846279013913443 0.1001909943930021 0.2376475631853577 0.1157011368653737 0.07002070068244012 0.06377552435989131 1:-73 2:-81 3:-74 
-0.1500721953185583 7.229304413451924 0.0359073833539597 0.09978116399475198 0.03310291687829432 0.08166963740798257 0.04064810717592815 0.02193160556895713 0.02028387016888232 1:-73 2:-81 3:-73 
-0.01765055514636208 0 0.001814695826070921 0 0.002735223327109106 0 0 0.002908092617541322 0.0007298513434514954 1:-69 2:-81 3:-73 
-0.4501821400501342 1000 0.2013503157610479 0.5484607576982937 0.191098953427006 0.4586071808942411 0.225418347644621 0.1319733506829517 0.1220238824677792 1:-69 2:-78 3:-73 
-0.19263977091822 1000 0.0846599211051431 0.2269646823026143 0.08088800221333939 0.1902757692945649 0.09272941360887939 0.05610497406727357 0.04989378386787526 1:-69 2:-78 3:-71 
-0.195131770873313 1000 0.09054636424208502 0.2474517221907255 0.08423236715324783 0.2053540943285552 0.1020538521839547 0.05801432602121218 0.05460015105445627 1:-68 2:-78 3:-71 
-0.05388151405582638 0 0.03447007464304729 0.07905094787809509 0.03201108379617543 0.064441542811494 0.03572253642089168 0.01878839352519627 0.01551503018338407 1:-68 2:-81 3:-71 
-0.3893201652042847 0 0.1775695462457353 0.4831935654400604 0.1682294547111228 0.403396090906708 0.1993389665428611 0.1164996461738639 0.1076763223994979 1:-68 2:-81 3:-69 
-0.006807333794520341 0 0 0 0.001854100113757528 0.002921365744644815 0.0008166749706045495 0 0.003143915789219767 1:-68 2:-79 3:-69 
-0.2212416390526835 0 0.09552550489055743 0.2622501454659456 0.09065519173575425 0.2176081956416825 0.1064029119105125 0.06223878346340331 0.05677011573851821 1:-68 2:-79 3:-68 
-0.5793970100705974 0.7072253068356986 0.2153848354492527 0.5848708578805815 0.2033798071503201 0.4886421274287499 0.2406894832008271 0.1415063637640122 0.1292765690425198 1:-71 2:-79 3:-68 
-0 0 0.1087583035073287 0.2949649846905531 0.1024535340945977 0.2449411133692833 0.1200581721594881 0.07013178090050065 0.06402178434066712 1:-71 2:-82 3:-68 
-0 0.1487186022887964 0.1430335917187238 0.3856717080381123 0.1341132367130393 0.3222962404586934 0.1601736630628996 0.09288849422075551 0.08570365298886995 1:-75 2:-82 3:-71 
-0.786334941717284 0.7210702287023074 0.2629871499933636 0.7130245591192277 0.2480039449766622 0.5957179909467826 0.2933604511138061 0.1717977843421294 0.158261964732988 1:-75 2:-86 3:-71 
-0.4151875191413027 0.5209827889357532 0.1907726245265974 0.5177089433466617 0.179646600907858 0.4324221202439328 0.212819055561378 0.1250717636715823 0.1152314953743331 1:-75 2:-86 3:-68 
-0.5829795421429296 0.7198166658843446 0.2662362964638038 0.7215564441418744 0.2516511850442472 0.6030219916145948 0.2967974801600724 0.1741350002296647 0.1600063725417321 1:-73 2:-88 3:-68 
-0.265497503883822 0.3315985888055344 0.1146873044543853 0.3112730628822047 0.1081300981472077 0.2602421434191781 0.1281532992807145 0.07465006482030119 0.06833131295973496 1:-73 2:-86 3:-68 
-0 0.06246315773427073 0.03758158911562377 0.09541739880210384 0.03250825970518676 0.08096443357340377 0.03780010152348518 0.0228488082942548 0.02037089716601 1:-73 2:-86 3:-71 
-0 0.1080219051004329 0.1026451216869534 0.2793255412786386 0.09758893551439515 0.2327189370155935 0.1140747607867856 0.06765827978465691 0.06159646665825395 1:-74 2:-83 3:-71 
-0.1968329893094249 0.1288678352945 0.08008354881026158 0.2189765454559864 0.07520032113879348 0.1815867959257201 0.08925472579619369 0.05183479129932288 0.04761835093743939 1:-74 2:-83 3:-75 
-0.02196559652378101 0.05048864294956461 0 0 0 0 0 0 0 1:-74 2:-84 3:-75 
-0.3745022448565035 0.506055512768376 0.1631581438609006 0.4426356158244154 0.1550550653242265 0.3703777078648408 0.1826146484444959 0.1071960873828447 0.09831805741267585 1:-74 2:-84 3:-76 
-0.3213686382376889 0.2097596086293811 0.1505006038037253 0.4084671834488738 0.1422805382469913 0.3411840360409034 0.1682924016399452 0.09841379261118563 0.09015011851189392 1:-72 2:-84 3:-76 
-0 0 0 0.009314301544131053 0.002884796940099406 0.004666442445692509 0.002056887595044744 0.0009281875040533794 0.0005964835371095045 1:-72 2:-84 3:-74 
-0.3921326008301663 1.488797792001842 0.176087886875768 0.480554908375337 0.1677284335252291 0.401524460193141 0.1966158938109915 0.1143863638883869 0.1062273683398257 1:-72 2:-79 3:-74 
-0.5833499222842264 1.088345793816512 0.2654287989115295 0.719539513388301 0.2501706484532543 0.6005365137812679 0.2964245116562862 0.1743239989376987 0.1592841562662587 1:-72 2:-77 3:-74 
-0.3004985412839846 1.215899397460106 0.1364940992625114 0.3740876675991455 0.1265623715207971 0.3099184950867271 0.154109077137321 0.08794545947898923 0.08086555582905293 1:-63 2:-77 3:-74 
-0.3195872176870347 0 0.1460367716686008 0.3891196821097309 0.1392806387613532 0.327485914787469 0.1606788273074118 0.09621347006945774 0.08829069180958507 1:-63 2:-76 3:-74 
-0.07921998550962824 2.536008359710078 0.03498630348358941 0.100673227067552 0.03159386453491941 0.08338484901529725 0.04045953244312932 0.02310828751889069 0.02097378353991606 1:-63 2:-76 3:-75 
-0.2084547780328906 2.308337277790796 0.09663521572130097 0.258526484562031 0.08777253923927686 0.2130853788885596 0.1074167209700601 0.06249997675903392 0.05720756727940501 1:-65 2:-76 3:-75 
-0.02008953580792628 3.148095195724258 0.006875650469631482 0.023604318249799 0.01283247777745667 0.02211514171241923 0.007818457458007227 0.005545935196630829 0.004986257396932472 1:-65 2:-77 3:-75 
-0 1000 0 0 0 0 0 0 0 1:-65 2:-77 3:-76 
-0.4540725925192282 15.96597190141994 0.2071057300962238 0.5602143293485167 0.188048760630884 0.4675893155123504 0.2310874455467889 0.1356404538008865 0.1246357158070677 1:-67 2:-77 3:-76 
-0 4.641142005580506 0 0 0 0 0 0 0 1:-67 2:-82 3:-76 
-0 998.5900556395259 0 0 0 0 0 0 0 1:-67 2:-82 3:-77 
-0.3793361667113367 1000 0.1722212510043927 0.4678961772169161 0.1081782798084854 0.3909165358871678 0.1921882871038109 0.1124181734594322 0.1036875046009829 1:-68 2:-82 3:-77 
-0.4813552894679406 0.7598555274616661 0.2188455827973892 0.5937365145566783 0.405782580952063 0.4955141326350632 0.2440941142018766 0.143231533299144 0.1313044471495747 1:-68 2:-84 3:-77 
-0.1347556983888182 0 0.06269324084636944 0.169029305246137 0.05801389872544309 0.1400244732624086 0.06876968911590926 0.03926351826420976 0.03648101366941855 1:-68 2:-84 3:-71 
-0.1013556268081377 0 0.06429101000593833 0.1712335607110658 0.06050538990281027 0.1439385870671507 0.07047393054101039 0.04064280626090937 0.03756941523935449 1:-71 2:-84 3:-71 
-0.1573431454425412 0 0.02693038592913261 0.08093569261733143 0.02721867542288964 0.06558307727641319 0.03266623176404842 0.02007329833954271 0.01839846467665995 1:-71 2:-83 3:-71 
-0 0 0 0 0.003144860223525243 0 0 0.002199802180492439 0.003198220888140416 1:-71 2:-83 3:-70 
-0.2283417706293693 0 0.09848717990211311 0.2709249968983609 0.09707143720098255 0.2258458278440322 0.1120706518871198 0.06738975629052614 0.06220260902930878 1:-69 2:-83 3:-70 
-0.1329275031516317 0 0.06423614081082353 0.1741551927811653 0.06204776160148856 0.1429035614871844 0.0702333813478186 0.04002241759591556 0.03685561188739213 1:-69 2:-83 3:-73 
-0.3003762992658779 0 0.1357564241858778 0.3694573400695362 0.1287810637210399 0.3085876909539768 0.1522739633634104 0.08956596894989495 0.08256160957315786 1:-69 2:-85 3:-73 
-0.3047523626492079 0 0.139012312068452 0.3742624309262431 0.1352180556582051 0.3141667779251333 0.1538370105860801 0.09007045525994611 0.08243693991959183 1:-67 2:-85 3:-73 
-0.4145201423780644 0.6960785117322011 0.1882534116947989 0.5115763157858623 0.1558647277036223 0.4268373025387684 0.2107821390653433 0.1234576347839215 0.1134859912517628 1:-67 2:-85 3:-75 
-0.6587173945271751 0.7573555297828723 0.2990600723349272 0.8123430779347494 0.3082706243632767 0.6785398846777446 0.3343634171855243 0.1959468914012772 0.1798462807876471 1:-64 2:-85 3:-75 
-0.005400791532791271 0 0 0 0 0 0 0 0 1:-64 2:-81 3:-75 
-0.5003385893897909 1.209143914333513 0.2300012920590783 0.6229329903970097 0.233897390698062 0.5208213200997005 0.2559946851443422 0.150092945380511 0.1379966099432006 1:-64 2:-81 3:-75 
-0 0 0 0 0.002053085281783015 0 0 0 0 1:-64 2:-79 3:-75 
-0 12.57392959414125 0 0 0 0 0 0 0 1:-64 2:-79 3:-76 
-0.04346050754483092 0 0 0 0 0 0 0 0 1:-63 2:-79 3:-76 
-0.2345183407402239 997.9137750457232 0.1253630507622842 0.3437369186376254 0.04645176982944934 0.2857471138337641 0.1407636799557759 0.08159207587429004 0.07395674309695292 1:-63 2:-79 3:-76 
-0.2617809466721234 2.504306897951438 0.1196732515456476 0.3215938145083434 0.2249216901719727 0.2697705048547175 0.1329640454173678 0.07842782921079754 0.07319104004902148 1:-63 2:-79 3:-77 
-0.4506647334282368 21.44803547243683 0.2052118517111382 0.5552388375246696 0.2476828672977524 0.4642735648981051 0.2287155837783026 0.1345678372425385 0.1229982292344374 1:-66 2:-79 3:-77 
-0.4337009243614653 0 0.1969073229266957 0.5344129868533759 0.3553689569344357 0.4463563811796337 0.2207624698759489 0.1291363918032141 0.1190927366935343 1:-66 2:-82 3:-77 
-0.01457338508510332 8.131429115862902 0.003994511264597029 0.02212545602075932 0.01202371119939008 0.01276698836283533 0.009477710113604114 0.00564606590425164 0.006904923347044494 1:-66 2:-82 3:-74 
-0 18.28703005571917 0 0 0 0 0 0 0 1:-70 2:-82 3:-74 
-0 0.07702561045128115 0 0 0 0 0 0 0 1:-68 2:-85 3:-74 
-0 0.05541797045064602 0.01759262995224682 0.06157087926168955 0.02137361626961228 0.04329420877349488 0.01958912891627943 0.0177556777325923 0.008673319624536751 1:-77 2:-79 3:-60 
-0.3422552451626894 0.3699307906373778 0.1367452582541253 0.3716704887790905 0.1272318667086215 0.3087348126613261 0.1504168990133315 0.09115663844531464 0.08028434807671286 1:-79 2:-78 3:-60 
-0.05714472249375196 0 0 0 0 0 0 0 0 1:-79 2:-78 3:-66 
-14.00602483470997 0.5750462701874581 0.2111481866128807 0.5739600451216337 0.1999868049189042 0.4791927167488112 0.2360717480355865 0.1379216895611097 0.1272503698834271 1:-79 2:-78 3:-66 
-3.075041208048741 0.4901483008142562 0.1801487236796653 0.4895603994059298 0.1708786137312196 0.4083923775630353 0.2008946498792687 0.1180344960619094 0.1081783416721952 1:-76 2:-78 3:-65 
-29.3018863742704 0 0 0 0 0 0 0 0 1:-76 2:-80 3:-65 
-1000 0.3298990912247196 0.1200564128122908 0.326867206270224 0.1138406854372951 0.2728731820071517 0.134118209010144 0.07963954703259687 0.07181872732628941 1:-76 2:-80 3:-66 
-19.76775489657893 0.2011760222402827 0.07417774166440749 0.1994441281051424 0.06932393293096079 0.1676818818771049 0.08237246881676097 0.0480623441625113 0.04403799439788879 1:-79 2:-80 3:-66 
-4.810946827776362 0.4901788221470847 0.1811741759666892 0.4905854661283722 0.1705835525357644 0.4103054320471108 0.2020597996360772 0.1179965834769611 0.1087571049149376 1:-77 2:-81 3:-67 
-11.5315600272432 0.5896667753425097 0.2181082490813734 0.5909935060325406 0.2054444877974527 0.4939804055933047 0.2433462984150541 0.1427617450100322 0.1310091531036348 1:-77 2:-76 3:-67 
-2.476590120991814 0.3348290555382131 0.1233299307855137 0.3336015161105511 0.1167491817563511 0.2786741339174928 0.1381134412519922 0.07969737561325664 0.0741294239180437 1:-74 2:-76 3:-62 
-0 0.1179571215782119 0.04226999139439923 0.1186096560275682 0.04201029973594705 0.0998193630772836 0.0484297479739182 0.03025262739938247 0.02667356309324337 1:-74 2:-72 3:-62 
-0.06708210061346728 0.05178315022472729 0.02251845807983679 0.05295487066665377 0.02110211156210614 0.04753425574312016 0.01959064437593894 0.01579016550568493 0.01500205607020859 1:-74 2:-72 3:-59 
-0.3920312141750472 0 0 0 0 0 0 0 0 1:-72 2:-72 3:-59 
-0 0.1961744609884543 0.07212258054965556 0.1946056214367088 0.06737711947431363 0.1620729991100734 0.08098465415843557 0.04621830468747058 0.04229909488983345 1:-72 2:-71 3:-59 
-0.2842947134261813 0.3708664567050421 0.1346279631068913 0.3682429190976486 0.1262444524845709 0.305979330130582 0.1530811135810589 0.08766862929409798 0.08009361366971143 1:-75 2:-71 3:-59 
-0 0.1444780329324772 0.05065296522508381 0.1416489382827895 0.0477924821031292 0.1169399214907339 0.06036617503941948 0.03184479987918656 0.02895556408388978 1:-75 2:-73 3:-59 
-0.01702789727240697 0 0 0 0 0 0 0 0 1:-75 2:-73 3:-62 
-1.62445452971777 0.1684734283342859 0.06224849921422527 0.1675181434554295 0.05824117460820127 0.1392082071924592 0.0698113073326347 0.03928474494091463 0.03648965489547277 1:-75 2:-73 3:-62 
-6.095008956931714 0.2070357608103369 0.07699860901228642 0.2070089521790333 0.0699931078416552 0.1737220172879472 0.08588443812349808 0.04889937952615327 0.04463498969886047 1:-75 2:-79 3:-63 
-0 0.1728361854979003 0.06293815159765871 0.1715313998428865 0.06032385565551968 0.1437256571287434 0.07099840244478214 0.04040286484893272 0.03865083325122098 1:-80 2:-79 3:-63 
-0 0.01451345691901449 0.006575005243763584 0.01585437301921685 0.004665402636239409 0.01201491374879128 0.004572127982841423 0.005006760342726679 0.001728270588836791 1:-80 2:-79 3:-61 
-0 0.1825371719425191 0.07064360360108084 0.1829908192435051 0.06185832370726883 0.155575667267738 0.07688997001263838 0.04255896414242179 0.04038536366777051 1:-76 2:-79 3:-61 
-0 0.176248157749112 0.06522234134197205 0.1750823996282157 0.06196600948134085 0.1465274816908566 0.07304761337361336 0.04204292772045432 0.04045994501273661 1:-75 2:-78 3:-60 
-0 0.08336657830996516 0.02917761748174421 0.08470873681026386 0.02708230959896172 0.07032366360559218 0.03157773281669812 0.01940686684297279 0.0158824701139791 1:-76 2:-77 3:-60 
-0 0.08808239413009655 0.03334813039456423 0.08676781073892229 0.03145174915919649 0.07289590434347376 0.03712770166823874 0.02226229769693057 0.02160833745658687 1:-77 2:-77 3:-61 
-0 0.3686698119278045 0.135383774935757 0.3680431226815784 0.1270684072259823 0.3099083415036141 0.151316332152467 0.08819262104957813 0.08051560479023015 1:-77 2:-75 3:-61 
-2.945117209576372 0.4202681128353555 0.1539348790415286 0.4181765331384577 0.1452989631294878 0.3492906003105816 0.1715167668753214 0.1005017859242093 0.09212888313018354 1:-77 2:-75 3:-65 
-5.232518161659527 0.5958338637027507 0.2187617043673233 0.5943956407506635 0.206507413469288 0.4963538179087051 0.2446361622867999 0.1433863979823448 0.1313180719195711 1:-80 2:-75 3:-65 
-994.4123850499828 0 0 0 0 0 0 0 0 1:-74 2:-73 3:-63 
-5.314129661335418 0.3345575811982591 0.124125218753776 0.3328836373503177 0.1151109461565338 0.2779676650284558 0.1366037950956779 0.07886851066031955 0.07332492460160779 1:-74 2:-72 3:-63 
-0 0.1105225147269398 0.0356437430334756 0.1090327837330365 0.03395074479593537 0.08580629641672398 0.04782658451670125 0.02216117527557531 0.01961374116483166 1:-74 2:-72 3:-58 
-0.3732736761150931 0.4039161623075494 0.1486622507458039 0.4045855172433393 0.140828288986045 0.3380674641004298 0.1658128554032451 0.09794509285917703 0.09030801142328461 1:-72 2:-72 3:-58 
-0.2326607473678632 0.2897414099223069 0.1063018672008649 0.2887188413709649 0.1003967700713898 0.2408674085880056 0.1188753464320553 0.069494951219621 0.0635591166256001 1:-72 2:-66 3:-58 
-0.3889039326630424 0.4775160178004601 0.1761015555643809 0.4767054870288274 0.1659450477021527 0.3982521622680199 0.1958456450348 0.1151671612598158 0.1058138601630098 1:-73 2:-65 3:-59 
-0.4391307992918156 0.5416586116920012 0.1991387895613893 0.5401739434205352 0.1882378493724493 0.4511942818610467 0.2224835132732517 0.1303693496181491 0.1192869329702218 1:-73 2:-65 3:-61 
-0.5280547073778405 0.652454287639431 0.2400553640034377 0.6519297826400084 0.2264876479648184 0.5444738489154324 0.2682338853728494 0.1573316218663848 0.1442270604846803 1:-71 2:-65 3:-61 
-0.3668890257516034 0.413080914520761 0.151998467462302 0.4115708127505598 0.1432546114177225 0.3443240788823025 0.1699076360435287 0.09892568266696075 0.09105257451193649 1:-71 2:-68 3:-61 
-0.900575873330569 0 0 0 0 0 0 0 0 1:-71 2:-73 3:-62 
-1.035263336965722 0.3757936672650094 0.1380727667347653 0.3743678896244134 0.1297239002923217 0.3125858345071886 0.1545371176145245 0.08995907336543582 0.08235442715393528 1:-72 2:-73 3:-61 
-0.06565215127511836 0 0 0 0 0 0 0 0 1:-72 2:-76 3:-61 
-1.275115479717468 0 0 0 0 0 0 0 0 1:-72 2:-76 3:-61 
-0 0.3475584333531648 0.1276523371721118 0.3466678953490739 0.1198888206789023 0.2896750987240619 0.1424908593949005 0.08418371807305054 0.07658012181426987 1:-73 2:-76 3:-61 
-0.09406400920398496 0.4772630887007404 0.1758218553086632 0.4760629812393418 0.1656461137263615 0.3977091357284899 0.195848184747875 0.1138999653940219 0.1049425363268629 1:-73 2:-79 3:-61 
-0 0.2592119127368241 0.09481268734065318 0.257543893538801 0.08951915243535563 0.2151015844780714 0.1052967033466147 0.06195752635619213 0.05696833416365811 1:-73 2:-79 3:-58 
-0.5344521834245806 0.3213494557958264 0.1187344854968556 0.3212503887469981 0.1124435003004331 0.2682534444464574 0.133317145979861 0.07767556922855504 0.07098598281191847 1:-73 2:-78 3:-59 
-0.02695963417203696 0 0 0 0 0 0 0 0 1:-77 2:-78 3:-58 
-1.015672431591029 0.333679279649493 0.1227990619346231 0.3380556635772055 0.1157834193969402 0.2782415766428829 0.1348684105187495 0.08434684468670593 0.07218509760254628 1:-77 2:-78 3:-58 
-0 0.06050176382470224 0.02015646787284393 0.06978894050699762 0.0194561209507449 0.05616286450350178 0.02281016998624608 0.01365891971582941 0.01064957447710944 1:-75 2:-79 3:-57 
-0.02256853281451575 0.07106366380880542 0.02331560525108982 0.07587588345083315 0.02228684930752217 0.05959195332600276 0.02708355291554227 0.01937112966888477 0.01311576266047137 1:-75 2:-80 3:-56 
-0.4879874028200711 0.514236655830011 0.1899147325176192 0.5148760479335348 0.1796854230836729 0.4298746780304427 0.2117490311898478 0.1244514535333716 0.114402721943611 1:-73 2:-80 3:-56 
-1.425926919682338 0.395550289272471 0.1451522009893856 0.3955322356016324 0.1374838382297295 0.3300766661095639 0.1625049689211557 0.09614443314639054 0.08710247446279622 1:-73 2:-77 3:-56 
-0.01058541507304856 0 0 0 0 0 0 0 0 1:-71 2:-77 3:-54 
-0.1397212347600153 0.2341375847196139 0.08554038657898541 0.233135789816894 0.08046981170733829 0.1954518869465845 0.095367040362194 0.05640529256225716 0.05125760078275027 1:-71 2:-77 3:-54 
-0.03821895666108288 0.07956003587469418 0.03035371824903044 0.08010749282243095 0.02845004593775052 0.06742273052660223 0.03430581501437141 0.01888506468405032 0.01903105974773434 1:-71 2:-77 3:-52 
-0.3307074708886291 0.3845409377524081 0.1407978453211253 0.383706039348048 0.1332032560547712 0.3200021740220732 0.1564429374386394 0.09230073356728348 0.08382711709409305 1:-72 2:-77 3:-52 
-0.5883624890375848 0.7266247455712858 0.2671615744205423 0.7251420885607358 0.2523850186438269 0.6056763130424861 0.2983107936374167 0.1749479147467364 0.1609108171237013 1:-72 2:-75 3:-48 
-0 0.1910936565617538 0.06985235464499559 0.1891878607030031 0.06711967672691452 0.1570096958106844 0.07887538005000913 0.04534245688978911 0.04251122112653878 1:-76 2:-76 3:-60 
-1.787478981903472 0.2649432507300779 0.09628463122029876 0.2632166707195601 0.09061186315221779 0.2201577816578423 0.1077351330290495 0.06163961859667247 0.05802879718623773 1:-76 2:-76 3:-58 
-0 0.06917259206236255 0.02296363003356857 0.07307939771558358 0.0220241214401092 0.05734722267368274 0.02565908923124227 0.02029691813208717 0.01217093110520149 1:-75 2:-81 3:-58 
-0.3867201958932038 0.4838968574099118 0.1783381527275076 0.4824753146030858 0.1679158735074778 0.4031272197405832 0.1991184831181311 0.1161293908481613 0.1071246665847525 1:-77 2:-83 3:-57 
-0.02567797578142466 0 0 0 0 0 0 0 0 1:-77 2:-83 3:-59 
-0.1368741902040868 0.1954288440020025 0.07159479198910887 0.1944763753262369 0.06835369471965742 0.1621003871917149 0.08000601618185217 0.04668821344661404 0.04335199261670428 1:-77 2:-83 3:-59 
-0.4359480089982852 0.5185977929821505 0.1910283689672735 0.517953127985344 0.1805099163494408 0.4330301415721815 0.2127854658587624 0.1256614997793596 0.1142821986013409 1:-79 2:-83 3:-58 
-0.5340703954551433 0.6637931334050686 0.2431930361801881 0.6619915810217937 0.2306033167770438 0.5515665310172191 0.2725419620926215 0.1590677756357795 0.1471024237824703 1:-81 2:-82 3:-58 
-0.5381169569306603 0.6736305912232937 0.2478071595343458 0.6725136081186391 0.2335127613604555 0.5617939634681074 0.2767502718957999 0.1621969323152689 0.1488004801689184 1:-81 2:-78 3:-58 
-0.06530944211920321 0.009745738727932 0.00223034277495654 0.008269627589397732 0.0044886264986868 0.00822002769912878 0.002923719523811194 0.001392136969164447 0.002613805545015902 1:-81 2:-78 3:-60 
-0.3493104973915839 0.475471069155301 0.1758103538250305 0.4750811523604925 0.1646339514556731 0.3961074607357451 0.1962420814948081 0.1144849960909604 0.1050955634159522 1:-81 2:-77 3:-60 
-0.2739104779758484 0.5078073689269772 0.1861856120605228 0.5068956001735447 0.176282776865769 0.4231537110406081 0.2080270974038825 0.1218184731706504 0.1113956173016522 1:-81 2:-77 3:-62 
-0.1820441378361537 0.2150103573032893 0.08070241870022876 0.2163411436613193 0.07300850953047643 0.1816502363932778 0.08949840922296777 0.05365372832787906 0.04981290357236103 1:-78 2:-79 3:-62 
-0.05643188660862088 0.07364553679487972 0.0258530533359352 0.07164998202806683 0.0259593916972492 0.06088187537757707 0.03136492413052522 0.01461789325555352 0.0173506919379778 1:-78 2:-79 3:-58 
-0 0.03933275998416578 0.01231430905530375 0.03951761993068818 0.01294214982849125 0.03089819037534851 0.01519319626471004 0.01335826897420373 0.006480682698193891 1:-75 2:-79 3:-58 
-0 0.1884674780988232 0.06977904437547429 0.1894533420103705 0.06601330591945614 0.1580191714934797 0.0775374727291326 0.04498125615157816 0.04119192012648319 1:-75 2:-77 3:-55 
-0 0.2031894946443776 0.07393252871062025 0.2013676536304409 0.06942354233054637 0.1687322107477984 0.08256051106057374 0.04838300720070074 0.04396333588556319 1:-73 2:-79 3:-55 
-0.193880863807509 0.180569198755433 0.06717398200203328 0.1777354328298237 0.06341591364980742 0.1501919741728685 0.07464591819344822 0.04341650863853534 0.04122830171171309 1:-75 2:-79 3:-55 
-0 0.5769348089831404 0.212902101084115 0.5770794586451904 0.2005073161388224 0.4802539788768669 0.2358592171231624 0.1396395538405542 0.1277345530992839 1:-77 2:-78 3:-55 
-0.001517783533084577 0 0 0 0 0 0 0 0 1:-75 2:-80 3:-59 
-0.100251519496355 0.1494401189036904 0.05383107448253419 0.1513434186323245 0.05130248906093077 0.1246459975252289 0.06016422776595749 0.03790383694531356 0.03257140245006795 1:-76 2:-82 3:-56 
-0 0.1641337939631238 0.06053857581615613 0.1659527743849237 0.05875885936384871 0.1356343923805021 0.06764521170097312 0.03924827937167301 0.03645046086973035 1:-76 2:-81 3:-60 
-0.04585756084984181 0 0 0 0 0 0 0 0 1:-76 2:-80 3:-63 
-16.29412889437188 0.2571982906595359 0.09369705774086712 0.2566249847686203 0.09149836541547197 0.2137884993400456 0.1046951508290653 0.06416014506554836 0.05741621964595199 1:-76 2:-80 3:-63 
-0 0.1660543078869979 0.06135223034374553 0.1593404333130282 0.055703454576006 0.1384642895540888 0.07047061490870368 0.03625294974491419 0.03958188770539949 1:-77 2:-80 3:-60 
-0.2452633859822654 0.3197254275526619 0.1184890546055672 0.3200581474888624 0.1103364288788948 0.2683701703836451 0.1309924351145276 0.07828599253790702 0.07020062796750368 1:-77 2:-82 3:-60 
-0.3165694226421301 0.3948427320874349 0.1465351308614685 0.3929025671536444 0.1379910110590107 0.3302030484910156 0.1636079284916602 0.0930676365401237 0.08816552826776335 1:-75 2:-82 3:-57 
-0.2531496265651763 0 0 0 0 0 0 0 0 1:-75 2:-75 3:-57 
-0.4707618876350406 0.5826780919803839 0.2146236929670393 0.5816809933361209 0.2028169706967922 0.4857637559459385 0.2395380926392378 0.1402541950341252 0.1288783500966495 1:-75 2:-75 3:-53 
-0.4589074513316361 0.5609065689852528 0.2064986303032325 0.5593596168409906 0.1951446056988508 0.4673020840659411 0.2303614582519031 0.1350238329470302 0.1241021366015516 1:-72 2:-75 3:-53 
-0.2934071234603086 0.3632247184137789 0.1339134407395607 0.3629393431069533 0.1261290758109876 0.3027636329101201 0.1496476593906453 0.08776518560514163 0.08008050906295884 1:-72 2:-75 3:-50 
-0.3911425096646327 0.4844552691882212 0.1777433943284934 0.4840497503756447 0.168922530477467 0.4049343806591194 0.1997603726983655 0.1156960053279726 0.1063234439439705 1:-69 2:-75 3:-50 
-0.373389616380706 0.4589466505414003 0.1697316701037553 0.4578016736047688 0.1586397265812036 0.3819448368480912 0.1879383874597946 0.1112515699491465 0.1018142839238298 1:-69 2:-76 3:-50 
-0.5968150856159912 0.7317424945678095 0.2692986752909571 0.7299609388786412 0.2541658341006567 0.6098615363202655 0.3004879892552884 0.1763879529772012 0.1615163396815504 1:-69 2:-76 3:-53 
-0.3633023474213433 0.3752886264295264 0.1374833986346089 0.3735256808643388 0.1295563544237333 0.3119469340947516 0.1531885764690669 0.0904379374498893 0.08181327420474759 1:-71 2:-78 3:-53 
-0.5723413083084821 0.6780623571891023 0.2494642599100669 0.6767078951344365 0.2353601125541495 0.5652783435404843 0.278315356017564 0.1629339297439699 0.1498327108515403 1:-71 2:-78 3:-57 
-0 0.1671627915762578 0.06365323794671401 0.1611332796439664 0.05931196969737307 0.1355827130990513 0.07068982410530703 0.03893661132006598 0.03947497534267438 1:-75 2:-78 3:-57 
-0.132097622224773 0.06331135693355078 0.02841499986805013 0.05176534870775663 0.02540717916388809 0.04933545269977234 0.03017841599560783 0.01319411094882719 0.01872421404351418 1:-75 2:-80 3:-57 
-0.5071985054034359 0.6189507511991452 0.2273182140523559 0.6179712929077756 0.2148122513672863 0.5158310788407862 0.2535833005502013 0.1491052582912978 0.1364010220170732 1:-75 2:-80 3:-53 
-0.00491809985295908 0 0 0 0 0 0 0 0 1:-76 2:-80 3:-53 
-0.187791694573843 0.2272021564540603 0.08356129814590556 0.2283368980556565 0.07879295746661684 0.1903204840427206 0.09310498949455197 0.05556087742274615 0.05094831390383026 1:-76 2:-82 3:-53 
-0.343338527010239 0.4295668093436609 0.1576904031267002 0.4271312379147979 0.1493899609466738 0.3567647749465805 0.1768466172645173 0.1028160802988666 0.09428712199879218 1:-76 2:-82 3:-52 
-0.4193041232044272 0.5182276519558302 0.1909043045251428 0.5169165160444437 0.1801086848176466 0.431947981138591 0.212121934089496 0.1248806317795836 0.1143711304581378 1:-78 2:-82 3:-52 
-0.524556359076887 0.6443866003475367 0.2369229355975303 0.6431585397953817 0.223854315010664 0.5373046849029255 0.265076276348413 0.1553320875250218 0.1425948105533988 1:-78 2:-80 3:-52 
-0.452158668920666 0.09758931610078177 0.03985710887584849 0.09814041917912801 0.03348184272639736 0.0816105142049752 0.03954239733709607 0.02711669408551276 0.02239806174084904 1:-77 2:-80 3:-57 
-999.1553002481951 0 0 0 0 0 0 0 0 1:-77 2:-79 3:-57 
-999.6949072256421 0 0 0 0 0 0 0 0 1:-77 2:-79 3:-59 
-0.5472725158699721 0.6759590808394449 0.2492869995927276 0.6742129634978549 0.2348047739445973 0.5639060057588122 0.2777957011767085 0.1632615594249869 0.1493640425933649 1:-74 2:-78 3:-49 
-0.003327131484926834 0 0 0 0 0 0 0 0 1:-74 2:-78 3:-47 
-0.3083849878386816 0.3854509817620804 0.1411103270148872 0.3849608226282593 0.1335426720744977 0.3210547664705545 0.1573266069614993 0.09336576885889714 0.08508764288024623 1:-74 2:-78 3:-47 
-0.02147847182821548 0 0 0 0 0 0 0 0 1:-74 2:-77 3:-47 
-0.1783947978463244 0.2467357902245243 0.0911980015520628 0.2462617173094621 0.08649301259682625 0.2058388731249649 0.1019520813184123 0.05856302139194497 0.05471209904338526 1:-74 2:-77 3:-47 
-0.533718604917353 0.6595284392349007 0.2430776269310296 0.6584372494168276 0.2291587485938756 0.5500884066728576 0.2711656015131212 0.1588674788437804 0.1458690493712843 1:-76 2:-77 3:-47 
-0.6721022853832119 0.8310033232001026 0.3056944016463841 0.8294672153417634 0.2886180878840247 0.6923958122605891 0.3411932516276079 0.2001211758970979 0.1835495736046115 1:-76 2:-74 3:-47 
-0.6136214530650416 0.7573147011308276 0.2790234297221973 0.7557614050410149 0.2634266246264357 0.6314493554410656 0.3112962116577127 0.1824656608798109 0.1675264404011572 1:-76 2:-74 3:-51 
-0.4524323974867407 0.5594196860694165 0.2053673980055319 0.5581566802026056 0.1943589396576017 0.4661607798121554 0.2296880162140891 0.1347849101395237 0.1238073951404101 1:-73 2:-74 3:-51 
-0.704582065131832 0.8701783138978174 0.3201455625896578 0.8684861849440294 0.3022371563758901 0.7253595233350962 0.3575222437804132 0.209497647384035 0.1921331082863199 1:-73 2:-70 3:-51 
-0.4382123708905202 0.1760128291748082 0.06446202456619061 0.1739701701735189 0.06007877958102355 0.145177047750995 0.07107523951442227 0.04140597654890608 0.03818958645264112 1:-73 2:-70 3:-62 
-0 0.2974887919265197 0.1084438164260241 0.2958708851530137 0.1022353007293971 0.2467399638947513 0.1213087655639888 0.07105872617485445 0.06517963527082601 1:-70 2:-70 3:-62 
-0 0.4222961945386809 0.155132397829971 0.4215810398709455 0.1472245125260498 0.352470322504744 0.1734636304252933 0.1016485761363122 0.09389689085033512 1:-70 2:-70 3:-64 
-1.745138739789218 0.2855818711940969 0.1055795257028149 0.2850424488262994 0.09881180461016723 0.2377905348186877 0.1171095140449706 0.06849810343014022 0.06261144860728535 1:-71 2:-70 3:-64 
-3.391512176532058 0.6513139805993718 0.2401346825343253 0.6502836778549789 0.2262977290405251 0.5424537875411365 0.2679806318266477 0.1573432018261096 0.1440965259516375 1:-71 2:-74 3:-64 
-1.595983281391965 0.4380328826045943 0.1614927335853628 0.4373349644750076 0.1528450565266764 0.3659283491196572 0.1797705339255585 0.10574961527459 0.09663035532066325 1:-71 2:-74 3:-60 
-0.840230894661935 0.4495941634627327 0.1666350684830573 0.4502655263812217 0.1573479874224321 0.3762834144337173 0.1842629745593271 0.10976272326718 0.1006644378724953 1:-75 2:-74 3:-60 
-0 0.1287519498719657 0.04338073264311446 0.127705840659179 0.04369182242831442 0.1047958018333393 0.05079480840788009 0.03428449979641787 0.02557581632226626 1:-75 2:-80 3:-60 
-0.3375037066758538 0.2289482181322036 0.08901232345754385 0.2279661374986464 0.08021901524686273 0.1943232163097504 0.09612107158998864 0.05055569798515963 0.05420364328883838 1:-75 2:-80 3:-59 
-0.02504125881939177 0 0 0 0 0 0 0 0 1:-77 2:-80 3:-59 
-0.29700510163583 0 0 0 0 0 0 0 0 1:-77 2:-80 3:-59 
-0 0.1213368026618406 0.04097250266491766 0.1189300617526294 0.04329062321134021 0.0994345177548429 0.05148636979390465 0.02659220553060604 0.02658091686000114 1:-77 2:-80 3:-58 
-0.3901283968156216 0.4604351861931163 0.1696116499057351 0.4593670473104033 0.1596997824465783 0.3836030762923325 0.1882789250439253 0.1116560427097712 0.1012899580580117 1:-79 2:-80 3:-57 
-0 0.009551495578264801 0.002887815112085567 0.009936756990193304 0.003156171112590646 0.008837062115172123 0.004050002509552478 0.0008245952495339326 0.001863332117029413 1:-78 2:-81 3:-57 
-0.4488424738897409 0.5706912671496087 0.2095048874500669 0.5693096183704655 0.1983037892962758 0.4755268900965856 0.2344925608050115 0.1374357604132758 0.1259881786950014 1:-78 2:-81 3:-55 
